0.0527631699654588 0.618647153459538 -0.707879295289207 -0.443122367701283 -0.401830784671349 -0.226111321250366 -0.0626052533262521 0.116948252821763 0.184588218759887 0.0173017406797411 0.790658851409683 -0.67534166179004 -0.427504229231972 -0.23605010373646 0.746893264248293 -0.404532134284228 0.708226558212322 0.0900264886271642 -0.651716386240686 -0.264653842134224 0.785693709010604 -0.297254271478045 0.0355613225493735 -0.596256259350829 -0.837336626107891 0.397534850140142 0.530922164097391 0.211920599566092 0.320331698522738 -0.501673604895963 0.140584728710422 -0.838354736557905 0.116581837316804 -0.465245567505702 1.34108217330384 -0.342078128112843 0.441573492112033 0.815174481226314 -0.552641429721852 -0.601654141619082 0.632291432168169 0.544523279851407 0.420877005378465 -0.317573807173558 0.753343364369446 -0.648922217855426 1.01078479462741 -0.500390060834489 -0.906720758716173 -0.806681670312902 -0.970975070582793 0.199254604299202 -0.669093554498725 -0.726052560563312 0.411695499241547 -0.681777384043768 -0.202669098528569 -1.13823882262612 -1.00347924458257 0.384261641529132 0.0215378711153327 0.688431457549574 0.333598442615565 0.083078042096743 0.712523640191799 0.770395356619651 0.510172020790263 -0.161851942468585 0.00423318172576633 0.140752150016108 0.445450088682328 -0.582774528961019 -0.46702814188913 0.703553437792832 -0.177765528886749 -0.746054422142847 0.0357966979495803 -0.976701291705834 -0.06145149892468 0.432149458233902 0.465602274735273 -0.0638111247491812 -0.211104571374012 0.44611362824496 -0.456628605669274 0.869943719718803 0.708675921966419 0.166949147139678 0.0161109654848957 0.929485175805708 -0.720806334969032 0.117476603536623 0.353932708243306 0.423765102005862 0.646823345458526 1.37828945059381 -0.870729108412597 -0.185890588216237 -0.24371199109955 0.604578239414308 0.698452333827937
-0.46920131948147 0.626326634858904 -0.95406827850471 -0.896631006370193 -0.079403146871411 0.0137099195084442 -0.555596476421251 -0.337672521295614 0.0505821239596865 -0.244276570722705 0.793905120947633 -0.681428175967352 -0.472531742228076 -0.421699773114329 0.66958797242308 -0.00433008357059889 0.837540311800325 -0.057056114705038 -1.06074390384065 -0.311077010423528 0.840939691045946 -0.297254271478045 -0.0714109597061548 -1.01913386239858 -1.0108136461886 0.0422934807384686 0.774774570294076 -0.273692249597466 0.461298528960577 -0.463678491786587 0.197484013061601 -0.793214761192485 0.202377088673522 -1.32551187823485 0.605794741128822 -0.0201565175148459 0.392469236083726 0.149199607288642 -0.0457620457082159 -0.360701742816812 0.630944011297103 0.561330568397571 0.497168551455607 -0.261614058735123 0.0251095191190656 -0.80661535797711 0.643669453259653 -0.234777371013357 -1.06516344611817 -1.26649498110874 -1.02323004421876 0.155927491851603 -0.574928210660354 -0.690871859415243 -0.198685573866279 -1.10744532628356 -0.690900475201622 -0.445226692497399 -0.805278485812293 0.0497492747716369 -0.00962626350139305 0.682344943372262 0.190111262870649 -0.672190774798799 0.423356379869788 0.3069648156968 -0.080757620965933 -0.549610873159311 -0.0397394633743222 0.0552990109161954 0.445450088682328 -0.588861043138331 -0.723239516458954 -0.0219472805364135 -0.0865616737190075 -0.985538370123108 -0.112000801307679 -0.551538383104172 -0.445526802151413 0.078147895013476 0.465602274735273 -0.0601923133985167 0.0284081833595144 0.297354542289439 -0.901182485843709 1.11079249830411 0.375634363037166 -0.196502952617398 0.447512064948719 0.904939578972705 -0.720806334969032 0.117476603536623 0.376982665476764 1.46581997625645 1.42030894648134 1.30223176379852 -0.868742138774055 -0.0862574488989688 0.7749431572235 1.17991073321368 0.702071145178583
-0.351961909608133 0.58551506373011 -0.641678186033882 -0.282168892783295 -0.166882853992077 0.563133806696045 0.0228441268991203 0.294436481002012 0.117628275183976 0.213743792705313 0.805575818951833 -0.706033626673222 -0.5226613452609 0.334318848615388 0.951813095395367 -0.498913633232174 -0.146266789160174 0.315532999109478 -0.546415503975925 -0.325928793981163 0.835582510548173 -0.297254271478045 0.111204294104939 -0.0930530645956685 -0.826378896616186 0.49934979960893 0.217541432021156 0.275316935761531 0.772317521629109 -0.49187996565908 0.269214552402809 -0.771243047392389 0.209572457419364 0.110973088196832 1.5248350451306 -0.127381104768155 0.28157247390127 0.822369871101806 0.103499342228544 -0.534811578816099 0.625633970682761 0.721594055300493 0.526880458475706 0.81959387154547 1.42543078478705 0.382445551191074 1.36587074794416 -0.747843835152331 -0.622122131273673 -0.673875042894627 -0.842996513885815 0.382506636929575 -0.572465853617223 -0.25737899571624 0.992642232145103 0.160318221686468 0.229243629216616 -1.5297542548278 -1.19124350147445 0.870039267271074 0.125252298805433 0.657739492666392 0.19932148722586 0.516797046428492 1.19143998945851 1.17427596752394 0.88083229961532 0.155070587335401 -0.313492044329625 0.151028459728093 0.445450088682328 -0.6134664938442 -0.477079203682355 0.560100231095116 -0.0116839136116552 -0.294977080780837 0.659089271312646 -0.861839362440035 -0.255730898332542 0.703553161794429 0.465602274735273 -0.077394330550703 -0.170227369851401 0.16291477680158 -0.411099322775376 0.823064881651255 1.44058241886207 -0.0385837992046427 -0.513053680108364 0.951314841160294 -0.720806334969032 0.117476603536623 0.342033304903859 0.0505386670611265 0.124162168810969 0.918723425788644 -0.406352214028612 -0.20837974385017 -0.863039422792933 0.288545488977599 0.684869128026423
0.274420013691233 0.745298278274328 -0.346983533579615 -0.351377170405936 -1.07837235585977 -0.223514130541376 -0.651915876069338 0.0698131341792342 0.33917851585597 0.531908078385468 0.923769514037253 -0.666886000119765 -0.435313357289333 -0.101294533253983 0.906411395672633 -0.39188176014431 0.274631974638169 -0.417782002000264 -0.775892075325685 -0.121065728278979 0.805663307932774 -0.297254271478045 0.233114807959325 -0.362653655051285 -0.650514403080686 0.332208293577818 0.374224094700726 0.0442314426094431 0.185437209356733 -0.396505892463295 0.158558203775188 -0.843912044611691 0.0977135779055649 -0.292039248657891 1.75993494871996 -0.00656720883345909 0.575008144711913 1.0490061157593 -0.756925727249413 -0.709507478310993 0.610385135676143 0.585315416579648 0.394946209876388 -0.276633062394163 1.05021269067019 -0.620134887389437 1.10199699334022 -1.72749707429644 -1.0861417119857 -0.57303509469936 -0.972116648885678 0.211282343967707 -0.96081781592547 -0.914508458536079 0.610698369100893 0.246981205962799 0.512445387456984 -1.75157942640899 -1.28787253239287 0.891754711873651 0.0575258507501845 0.696887119219849 0.0648848833972326 0.679672735370898 0.504126569904806 1.15295793698207 1.00141844775608 0.151688018255166 -0.122899477098304 0.320127887509615 0.445450088682328 -0.574318867290744 -0.653976723510908 0.714381385111315 -0.393653542387503 -1.04813606753781 0.703741346225202 -1.06824230535224 0.0283183891134966 0.994532662964279 0.465602274735273 -0.097434149515113 -0.350414654723106 0.187639533174805 -0.40838771684306 0.329156931998196 0.966528658972084 -0.040168683852068 -0.608541517318769 0.758139031508869 -0.720806334969032 0.117476603536623 0.269308943641609 -0.0307049981781425 0.285026658018918 1.04402937356322 -0.544445449696201 -0.343808126220776 -0.934869877083194 -0.0786822145710211 0.664829309061999
-0.263485807293617 0.702677136588106 -0.351034592057808 -0.1120525171442 -0.521449539769397 -0.00835656912645414 0.171428963122296 0.190541293383304 0.407152592469374 0.340941627994969 0.802351866967937 -0.73822925253563 -0.386957728327979 -0.404521119532546 0.855804630115742 0.00970481933064595 0.771276330639633 0.758624432129857 -0.827423385572367 0.0838755161623205 0.728751663256642 -0.297254271478045 0.0512432572871587 -1.14088669992842 -0.574207324443427 0.502052082574297 0.533988119603631 0.463344608600619 0.507142854314169 -0.817177796952203 0.0741933061318447 -0.833562199313548 -0.116515104516739 -1.0515826996399 1.24773753557856 -0.424140103958717 0.365125470133716 0.612375805293818 0.396202785309129 -0.941696899182021 0.625309276528226 0.529386277287964 0.380707991593256 -0.259230549288248 0.734213768641431 -0.306749488040885 0.731500817910418 0.0482180852254582 -0.715281712390185 -0.908628216068469 -1.12057691223391 0.0298101070620371 -1.06297299485206 -1.10622664568812 0.971363091440734 0.311307863761782 0.132568714329114 -0.252211968801526 -0.508874363588182 0.584604822924165 0.0529496355444571 0.625543866803984 0.561903065769371 0.0988645038476809 0.742585427983706 0.775451310175587 0.82336209491183 -0.011252930220715 0.333299112393978 0.135657386095966 0.445450088682328 -0.645662119706609 0.26121529448833 0.911605731016352 0.0438089422672707 -0.891453341397377 0.674987465447599 -1.31888325031688 0.610941007598666 0.492913899224594 0.465602274735273 -0.0656460428481105 0.0536244411908539 1.25022196190404 0.161258270306857 0.847232375904801 0.826122512790068 0.301489081461333 -0.135567722740432 1.0587176259081 -0.720806334969032 0.117476603536623 0.342722554972653 -0.160698638146657 0.553115086779231 1.45339833508769 0.236458537866966 -0.212862007666213 -0.208939202253022 0.725260118077211 0.696617415729004
-0.379299006509517 0.705780289857946 -0.48747365474812 -0.292645237622525 -0.504410730564801 0.162398407217894 0.0858374724974447 0.195787178877801 0.178668433541516 0.143233313262226 0.801103755585772 -0.755507294707949 -0.507252125719881 -0.578380081303318 0.877931332953008 -0.00566525114121556 0.860788853111432 0.628749280600906 -0.956920614703844 0.0873985438048673 0.778231110974067 -0.297254271478045 -0.00657549534318913 -1.19395018585577 -0.790992044429366 0.362665534823464 0.695495858536239 0.418260699870313 0.442283809012482 -0.690428231237195 0.136599531369561 -0.807026525876439 -0.066284700715576 -1.06713621543848 1.14987716434528 -0.435387392489381 0.36768903455734 0.636259993136433 0.439402098772027 -0.7074327835308 0.625336931841494 0.552893349761361 0.408295597393509 -0.188074163337186 0.621735329491781 -0.215593221253255 0.903495910441115 0.0576913774791402 -0.757447891959627 -0.995466094400854 -1.10152078002948 0.0821859419173753 -0.93192038740434 -1.01332073474685 0.918157535424941 0.302391582884213 0.066272060173544 -0.205214578150879 -0.544987585018185 0.556941026741855 0.0473701854310602 0.608265824631664 0.488275154797212 -0.0694442249235583 0.653414519368464 0.754263637776775 0.888538495899651 -0.0316594455413654 0.310195267814732 0.119973483761832 0.445450088682328 -0.662940161878928 0.133074532807592 0.774027410203757 -0.0639606978281981 -0.954672101181271 0.716038766239785 -1.1155567472474 0.489690394018014 0.454129845378864 0.465602274735273 -0.0652333628517182 0.286414193740476 0.997918784383784 -0.135712840281172 0.763489006208137 0.86201215622348 0.270678361752166 -0.0194419512175071 1.03534792528557 -0.720806334969032 0.117476603536623 0.344348883134917 0.261235132103619 0.846189619886071 1.42050627039558 0.340913126824741 -0.347707707454245 -0.0811759524619379 0.94233344421039 0.697030095725396
-0.470393028837227 0.705784873802638 -0.395490509406331 0.0519578551466872 -0.326511024135657 0.206922142584491 0.393806324341588 0.350912904451902 0.3406111363625 0.300207180148924 0.801869532014948 -0.742933822853328 -0.420511966908052 -0.122027557078848 0.965789283114641 -0.0436466235796048 0.72477643873863 0.884066544775491 -0.638977445161143 0.172380938065702 0.857402986351018 -0.297254271478045 0.0834800933386863 -1.0461257728861 -0.613628490839436 0.496116610682564 0.513230475812211 0.463115570260415 0.516167499377844 -0.645727606639024 0.203959127376393 -0.802220122869749 0.0250368436570261 -0.867512770375672 1.27610042186904 -0.462987432794278 0.300404926707635 0.588733331143428 0.570612115208615 -0.636968667603865 0.626045194669598 0.612192538353691 0.474776873088444 0.0697684061254981 0.882450449214135 0.0705914745029068 1.2250580305296 0.279994312332814 -0.556510512902313 -0.78207225584015 -1.03503913240056 0.164796550657862 -0.76404484617361 -0.700364237892143 0.975410219057707 0.25338094718831 0.0620036746160135 -0.390768628820114 -0.549941058462199 0.623138249745961 0.0554387391280611 0.620839296486286 0.668341542938355 0.264741877506817 0.723205461806751 0.940479696682038 0.701913777766195 -0.211455897945738 0.236700244767052 0.112303480329998 0.445450088682328 -0.650366690024307 0.0922090426101102 0.993926524174637 0.19223068551625 -0.806396179755329 0.657073823082848 -1.39261297232888 0.317571089901317 0.470189227096506 0.465602274735273 -0.0649815596898058 0.0655614051174792 1.06890585788966 0.149995196043767 1.10292498256364 0.941522223401404 0.278130453040331 -0.366475246218207 0.974398586487252 -0.720806334969032 0.117476603536623 0.31707746443998 -0.253142087641331 0.502310957132511 1.31450462937233 0.230147270179841 -0.355649846503367 -0.248079238552838 0.844913198123866 0.697281898887312
-0.557729836310415 0.705345040035837 -0.387761784825545 -0.0351981179570872 -0.322940641511093 0.259678670147152 0.381328168942407 0.346172259887965 0.324681677083735 0.287708836874647 0.801844997404888 -0.725215298354685 -0.397956309883748 -0.0983595993786908 1.00034692529393 -0.0365093505171989 0.790227652235474 0.801642921925146 -0.633896933012749 0.217663370731234 0.897254315919498 -0.297254271478045 0.103320650373671 -1.00320427399001 -0.616810008008889 0.43542575852852 0.613899179975869 0.431769768234274 0.527399897972563 -0.627495275847822 0.226507231602958 -0.795167793717506 0.0860014118382437 -0.833589010124943 1.24385463157939 -0.437357081184644 0.367151890874026 0.604141731166552 0.577418116246257 -0.602539048972627 0.62606497007635 0.617751061200831 0.539946061390669 0.109310329357632 0.828766527486641 0.144311473241111 1.19409792666084 0.349397218328012 -0.536140558993448 -0.798236891297664 -1.03682600593752 0.17841516736473 -0.753959385583045 -0.683945947379099 0.912302242010746 0.130927964595786 0.000752942522222413 -0.345611308432826 -0.504913089119733 0.602908751162565 0.0538546479924967 0.638557820984929 0.669317938378544 0.222672951100399 0.708158721444666 0.909092545164121 0.622108866201593 -0.272179407536921 0.242420038158297 0.109185745670229 0.445450088682328 -0.632648165525663 0.0669776128372942 0.964100350097284 0.214065854918282 -0.823594821101429 0.642773590076897 -1.39472402234135 0.351087677705636 0.452809740712669 0.465602274735273 -0.0650468470179821 0.0534760593887316 1.0436115216611 0.120035839559919 1.14827372523383 0.884051418815887 0.266724285199732 -0.264172215690168 0.972964458864422 -0.720806334969032 0.117476603536623 0.315955468074398 -0.18778027346022 0.53568796615426 1.29550993885683 0.222524193699186 -0.376169598738745 -0.179560575484355 0.934264883505478 0.697216611559139
-0.566871640772599 0.682778653872072 -0.612269674461715 -0.403220837464095 -0.225425587359369 0.12873460198056 -0.0731520726867076 0.0746044902380101 0.230477830152049 0.0951046687174225 0.801106763712302 -0.738532536107392 -0.479303127114263 -0.4140802269755 0.92751785369669 0.0344834749492494 0.989881460012835 0.369760486801463 -0.831943042802791 0.0623527775286511 0.867670073845341 -0.297254271478045 0.067956628306579 -0.955814188388625 -0.837088286245266 0.250218890206115 0.770540960920683 0.210640931320913 0.539437642149888 -0.577102314296933 0.232068379752709 -0.797400696241475 0.0435160781913415 -0.98167944453794 0.940269489221464 -0.222964291760787 0.382394659234002 0.604647578717465 0.181959529831283 -0.47724915220462 0.625081621947158 0.560275624171123 0.427597916874943 -0.107676989083702 0.567449539419036 -0.242293449995963 1.05918199788991 -0.0897687442637988 -0.7869182936098 -0.92902139973967 -1.05191143165779 0.176926572017626 -0.89111487952753 -0.832460526425385 0.57262167735189 -0.233310609183044 -0.219642560379894 -0.270261821713351 -0.694794516209542 0.398732223181998 0.00441489318626989 0.625240583232221 0.374743422601357 -0.236253052860467 0.618714766312654 0.592816335075446 0.477735280262607 -0.229356742644466 0.197708329098968 0.135994069615059 0.445450088682328 -0.645965403278371 -0.157212993257796 0.653125347739789 0.0182889285951483 -0.981558990258924 0.573932426346122 -0.76535043974295 0.107172793819592 0.412015496740128 0.465602274735273 -0.0641222230823945 0.154106095352754 0.76490047849525 -0.287121641051736 0.760162680146111 0.876711422072758 0.117045631558638 0.272224538551224 1.00029848951984 -0.720806334969032 0.117476603536623 0.326473284136489 0.63448173129036 1.05188619686465 1.25092123649331 0.0934489152306624 -0.0498355004103872 0.428198326495074 1.01881560959414 0.698141235494722
-0.661560821890816 0.676306310326538 -0.908062435952673 -0.477943721298889 -0.10065823591539 0.250857257519628 -0.125928366586425 -0.215783012908689 -0.0377387438382601 -0.174347135687719 0.79128996212105 -0.749199860223665 -0.639924835882794 -0.348176371084643 1.02476760331471 -0.0190765303592216 0.720044547365821 0.428003092941619 -0.806490289095822 0.0285375524227566 0.916680384195777 -0.297254271478045 0.0900387904044707 -0.910485818989388 -0.989803043189158 0.285819277450634 0.814441320328249 0.042167517297366 0.508540090679087 -0.514238150996166 0.288401556173668 -0.787861865627176 0.0905897156576189 -0.837827467505461 0.974257051735099 -0.158566288603181 0.367321353710633 0.524465385902016 0.306884472608788 -0.406331469377646 0.624498914579623 0.587072631372649 0.498101114612161 0.0352156186560914 0.671848083292614 -0.121669792178369 1.32183109166199 -0.178606618565494 -0.796699206067351 -1.01287254842181 -1.03055721990671 0.258080098114289 -0.672459559038275 -0.724125820895223 0.605318012072433 -0.236398597250573 -0.0945738148089858 -0.352693311036145 -0.832187093525636 0.485760870424457 0.0346780383123581 0.614573259115949 0.461811111882854 -0.460473270637076 0.552949735634724 0.687040180198856 0.54875918638635 -0.0718375734296432 0.139962357676785 0.0951576346424146 0.445450088682328 -0.656632727394643 -0.274779717146639 0.441284520924948 -0.136757818501532 -0.885240134740584 0.519011664939621 -0.551762915362033 -0.0393382879520907 0.389171662626001 0.465602274735273 -0.0639157557686393 0.199546782824776 0.502055477414222 -0.712135289339755 0.621424129250697 0.990921228075054 0.147950536898373 0.368634455201252 0.973544349246702 -0.720806334969032 0.117476603536623 0.309895193209703 0.734272256184508 1.094612606728 1.32118974584319 -0.0332110098385297 -0.0645229052248419 0.387428992824615 1.05607709390394 0.698347702808474
-0.472336826836097 0.610499893143725 -0.997239508262652 -0.796620663433611 0.0694359972674697 0.0159412928035998 -0.1620796285457 -0.366473541049473 0.15540071672943 -0.24885298261548 0.772477396680334 -0.691388178595509 -0.498016893850321 -0.142999839244709 0.467825127874656 -0.224651651430834 0.813565993673002 0.0340084229126829 -0.728950767720532 -0.0344939343282277 0.939479618784445 -0.297254271478045 0.0435585554073942 -1.2662165747499 -1.09811393513756 -0.32158650355945 0.806440445007391 -0.276649054593601 0.596000824055505 -0.342215060308912 0.300382960876235 -0.834020969677604 0.27932614846903 -1.2026229481991 0.602419374739049 -0.228254207056526 0.206935836179053 0.267794591948488 0.495396191555891 -0.244116872117338 0.594009640690626 0.572004171951496 0.629352753328939 0.217759011559026 0.625659896782173 0.051242015507176 1.33585140568833 0.157043003421114 -0.697895540781711 -1.21668203204128 -1.03743397053689 0.256147096035269 -0.593836329499475 -0.596280022175143 0.0290462655657988 -0.94093726426629 -0.445575257193483 -0.372166947551613 -0.677245415954383 0.0762388423207314 0.012571922739828 0.672384940744105 0.138727133480289 -0.641719634161815 0.237578097711963 0.1818047068715 -0.117359726763371 -0.42444909848563 0.16808410778109 0.0451811194400369 0.445450088682328 -0.598821045766487 -0.891877195710893 0.133444937148018 -0.0951198439276263 -0.752234657074613 0.164308660820096 -0.623227658414409 -0.304766315416759 0.0934648153148326 0.465602274735273 -0.0611629065938829 0.042407980804908 0.362652044255801 -0.969811675869017 1.07763464897141 0.669335210097767 -0.136014220516216 0.270175560316651 0.904708875309472 -0.720806334969032 0.117476603536623 0.271174032472423 0.929769839107249 1.27634411011775 1.39216662756332 -0.419878300333107 -0.194538976513704 0.380998655737236 1.1944048248101 0.701100551983214
-0.703461165324678 0.660599222990411 -0.145653731763397 -0.103332015236468 0.424580687938719 -0.220309858678109 0.187866446529908 0.129365430026504 0.390061442007695 0.386304157664577 0.802105997673812 -0.583005348315296 -0.189502750312106 0.394640389725521 1.18219421175027 -0.272613139554838 0.735066121609991 0.583487428211596 -0.280307576995657 0.164372121713388 1.03031324461602 -0.297254271478045 0.208649368349449 -0.458973452835323 -0.490269922949937 0.929308222650851 0.569945229921202 0.20329145668203 0.745321782457723 -0.512636968556254 0.262363027574389 -0.828398275026369 0.336886006254677 -0.341134287167354 1.24675575389406 -0.261923363537546 0.648582358925163 0.791904414514004 -0.249633380765615 -0.452945961990076 0.626436275795582 0.611774415639933 0.76125763328963 0.421364243012828 1.12470428240577 -0.151610082128818 1.0976595259084 0.234331313504327 -0.555751499472806 -0.63314500971529 -0.805415580381076 0.463290817165998 -0.335042934420191 -0.40919844752436 0.331041851477092 -1.23097629371085 -0.143936171307343 -0.772241191982382 -0.533655680512238 0.653295341851724 0.0654874307049788 0.780767771024318 0.777099589416192 0.364126357315843 1.05452510083197 0.901614881921657 0.190484966052216 -0.204620069493785 -0.0469692435041034 0.124962283051933 0.445450088682328 -0.490438215486264 -0.0867277948926988 0.845702276381445 0.0712561150318121 -0.349904566824276 -0.28929501722157 -0.833406760244756 -0.232030269271461 0.499074710281234 0.465602274735273 -0.0640559499683042 -0.422203157437849 0.865496651180113 0.0292406499770068 1.24956402400952 0.572575892401988 0.0467604903324914 -0.0660884815939244 1.00397212651145 -0.720806334969032 0.117476603536623 0.319050227296325 0.262192085496947 0.643960471479865 1.46771048218939 -0.814922187520056 0.395936952008822 0.224124315873192 0.768388220253572 0.698207508608827
-0.636178140993037 0.690729548222566 -0.279905345235488 -0.116294145096255 0.134707606996311 0.000369012082842297 0.384424423753467 0.142832312045361 0.468452378592609 0.362069604832895 0.801932468725191 -0.635453473009927 -0.241895796662544 0.21204234775034 1.06876210013326 -0.114081255658368 0.866313804637721 0.816849399161095 -0.40872473097575 0.180440253774763 1.01218713238004 -0.297254271478045 0.201670682192636 -0.649308384164594 -0.521101663886681 0.630226610004903 0.605245814115346 0.308891309656245 0.716371723036352 -0.577801425971272 0.266381185852309 -0.829553959892029 0.265248423694993 -0.509230978314636 1.22429638714761 -0.275444038455917 0.488679233401083 0.785536975648378 0.0580249331509902 -0.496783253618477 0.625816620568337 0.589954145888693 0.675906123955344 0.294461238322865 0.998886504639 -0.0417638025364651 0.920168458085682 0.271826991139427 -0.496783249760866 -0.652485308720631 -0.98831681059939 0.300159226593572 -0.68225120597166 -0.479345456892936 0.609069989444358 -0.652189990969594 -0.137621603104392 -0.530677145530557 -0.496043842071181 0.561105923362182 0.0594186423216845 0.728319646329687 0.728482629841809 0.222114520679587 0.987992900057826 0.873795318846575 0.254608214163455 -0.33991798410295 0.0581163487846632 0.129941487664406 0.445450088682328 -0.542886340180905 -0.0844094009146631 0.99360733093374 0.189672531858723 -0.525298756587749 0.190027287741798 -1.23180105468798 0.0789844481057286 0.471125266200127 0.465602274735273 -0.0646065105719938 -0.375601878105799 0.99365558391394 0.192732519688901 1.17012885229327 0.797328564871033 0.043012993684572 -0.109343627383054 0.983693481154577 -0.720806334969032 0.117476603536623 0.314038678587706 -0.121571922295172 0.503968233551276 1.37873827120014 -0.46290196625538 0.251070605697805 0.125790004964952 0.847694713575774 0.697656948005113
-0.86108827118463 0.703829786219558 -0.332801568693895 -0.163199002068392 0.024837152680446 0.199086797897391 0.257664948518261 0.138554299503074 0.318526755266958 0.275429770874328 0.801800021623002 -0.649517577904875 -0.30347412731275 0.0360509257044166 1.05882284704655 0.0989727995705208 0.854492932503517 0.731160387066469 -0.565206472186989 0.282245065501355 1.02712576874654 -0.297254271478045 0.171025005802514 -0.82572336232749 -0.582865010671788 0.571851201549801 0.737847310201407 0.301685386710767 0.579554574762201 -0.592482652014682 0.28215124201455 -0.792153671472588 0.23224906544723 -0.72773489654435 1.17391824068528 -0.198305028803764 0.534653996700005 0.750644674878559 0.310465358394717 -0.506039457311973 0.626079059163044 0.623823740634393 0.660727542933971 0.202617093875975 0.849002509521949 0.176356008382803 1.10999548111808 0.305945633238679 -0.603515734542498 -0.771362500508441 -0.996262416120051 0.267372934909006 -0.673232289141835 -0.563073329074202 0.63455319643006 -0.408969389429358 0.0128336544792622 -0.325655623924217 -0.484284412820685 0.552908717675999 0.0526774947412418 0.714255541434738 0.676409153484155 0.09496694090656 0.764055141051673 0.836124103658545 0.352312968634738 -0.222893491201835 0.134242655989239 0.103826676727591 0.445450088682328 -0.556950445075854 -0.0423198407665141 0.857803163249694 0.139415779915862 -0.734634209396633 0.385730862652743 -1.10905283488467 0.227666031767846 0.42740782212041 0.465602274735273 -0.0641388180792979 -0.129282262670008 0.925460041889135 0.0204798636939163 1.17477778905662 0.856059747061368 0.180856052044703 0.0839585604780341 0.944921360564719 -0.720806334969032 0.117476603536623 0.314792556309245 0.0845445414159536 0.704216202675219 1.39340643550302 -0.0560438026201958 -0.00346897313589889 0.22301572143315 1.06910281458257 0.698124640497822
-0.100605665494731 0.638780320776912 -0.856071812260813 -0.688530677326291 -0.350648288439843 -0.189632747721973 -0.573657840295755 -0.229575014424667 0.232518567843497 -0.176809029847688 0.786481097842491 -0.685107772112334 -0.427822432293873 -0.288132532224123 0.537137499825901 -0.161576772505206 0.7811578999011 0.0780339120299591 -0.862807414646456 -0.055725303633165 0.890651523982696 -0.297254271478045 0.0095780690010679 -1.13917311280971 -1.0159615747631 -0.344805642872147 0.586135513490098 -0.246684176243897 0.361374972654793 -0.358814441749566 0.230997733120226 -0.822271146746753 0.389640977008898 -1.29847970219056 0.738355274964313 -0.354310871645925 0.171790115008794 0.349590534122392 0.244145321343416 -0.189586153017667 0.606480449351091 0.568945918927957 0.694247900126474 0.043746043955868 0.13091532063089 -0.559306129583472 0.427493949801039 0.0607528341678933 -0.96195818427301 -1.10725046178969 -1.04790208664455 0.169601195086838 -0.532415609035615 -0.768193993703353 -0.0894693482818785 -0.945363376457261 -0.869297016859504 -0.588567552732457 -0.749408106644434 0.11617215707809 0.00282111263149442 0.67866534722728 0.39740592290245 -0.693102464895892 0.478897071978973 0.114385365558032 -0.177715596095127 -0.810515894270534 0.046548469674571 0.066786466811692 0.445450088682328 -0.592540639283314 -0.563510297491333 0.161474395483574 0.0839097188683842 -0.941531841543287 -0.0481802802723621 -0.98720966100558 -0.417521494556604 0.119535522481704 0.465602274735273 -0.0507891543357754 0.0227254312185765 0.402029547991548 -0.81761780393935 1.15807204243951 0.444437222632246 -0.251786840054639 0.109126213460634 1.00178327222925 -0.720806334969032 0.117476603536623 0.402039431557894 1.01966086605127 1.20619870509815 0.814501401157654 -0.766382963264393 -0.345455767680405 0.517811186256212 1.26654625210962 0.71147430424132
-0.82136823335538 0.637122111205146 -0.67399378200008 -0.469766173307084 -0.0129199081855194 0.400363661451808 0.103127153852966 -0.24763173795209 0.235356652304366 0.138022066133549 0.806565965781802 -0.68748375978769 -0.349487999595252 -0.180730417218159 1.01354763442343 -0.0856159342569602 0.915115682433572 0.534160684272828 -0.813871397714039 -0.481084592450966 0.837347968274879 -0.297254271478045 0.0973152759316152 -0.907965754806886 -0.775796161439484 0.378443159952239 0.771962603660966 0.139768390319036 0.607664597371098 -0.456816506452686 0.20181324259891 -0.861468124129523 0.0878929015484022 -0.870743451592568 0.693851048733388 -0.0510380924776586 0.134811329539813 0.672028959056044 0.0738064119239411 -0.409240200259391 0.603640315046978 0.554438095476327 0.411754418718553 -0.140787194166293 0.711835750662619 -0.150719066654154 0.948108835223223 -0.0420461127948892 -0.703206147147672 -0.874274174221318 -0.945209981752288 0.265888721646414 -0.643333556296214 -0.599454254003389 -0.00198376551069995 -0.595407238271588 -0.263260907641635 -0.824332465016024 -0.762126254186179 0.388240859386679 0.0110932013684612 0.676289359551924 0.34625724728919 -0.494347419170678 0.819744394153851 0.633685992338225 0.347081227483747 -0.343458215047052 -0.0336699350454037 0.150502618897862 0.445450088682328 -0.594916626958669 -0.653579249398349 0.629797183567477 0.0184405736394659 -0.84692589436458 0.188021114044262 -0.666506336429726 -0.303776147159112 0.447020460033885 0.465602274735273 -0.0638599576450559 -0.163584543263485 0.415763575295312 -0.328752384578136 0.819649246343149 0.88709384775098 0.201731494610947 0.0352408586594438 0.972553523977671 -0.720806334969032 0.117476603536623 0.336170091581869 0.40379829875133 0.717129923925027 1.47110530160757 -0.187550316974257 0.441452010986236 0.0929784897818344 0.820642933845959 0.698403500932058
-0.413455625975587 0.585462321001957 -0.99852291227844 -1.08415714353001 -0.109943325285977 -0.157757161720131 -0.414021824409413 -0.312138698417565 0.0837566060901779 -0.276101141367961 0.793350359901221 -0.686098497924362 -0.50751025625838 -0.310922016515913 0.466455871278864 -0.0877089712299939 0.731402082912304 -0.0754695877132253 -1.23540460542517 -0.317975135034636 0.820056134445729 -0.297254271478045 -0.106915586135423 -1.48594761470739 -1.22300851759645 -0.381129427491425 0.903835821725409 -0.210245664690288 0.180465041958149 -0.521317599263931 0.221580331228957 -0.832847092044064 0.2417835504503 -1.21897289206856 0.56490068197395 -0.144585793052856 0.473413445660566 0.0658007235042839 0.0996641287349768 -0.40724617203417 0.603555670204252 0.57326961060522 0.623851070233942 -0.188108844500895 0.222182661197383 -0.589602265610712 0.406611684371119 0.0118878059173974 -0.746072805783943 -1.22221370501677 -1.0179937644638 0.196630260427821 -0.545210511891532 -0.795167829232554 -0.20332778391624 -1.09191165536557 -0.488010311031194 -0.352796388782282 -0.630447489043675 0.00140043629010385 0.0136829493602702 0.677674621415252 0.253079429941648 -1.0143308420655 0.298508517753671 0.139825207158163 -0.22826015585732 -0.640863909919337 0.082284965095148 0.0555820187068326 0.445450088682328 -0.593531365095341 -0.935435721504627 -0.182549260607324 0.0455751992643192 -0.724396170449549 -0.0595015444536399 -0.862837999720479 -0.548014516779319 0.0297207729892183 0.465602274735273 -0.0478832697274209 -0.126318448042349 0.203749876377105 -0.916402864765395 1.3527250716732 0.136188210490009 -0.45303797453666 0.360548955240513 0.931059460025427 -0.720806334969032 0.117476603536623 0.344683129295708 1.36046166121493 1.31448928589917 1.31242489498661 -0.849507846605501 -0.123446844349511 0.917213344246434 1.35595368561315 0.714380188849675
-0.571390959749592 0.580222254325352 -0.803074749999149 -0.603713574060563 -0.590844806273843 0.380670842469256 -0.658801355923261 -0.477491475814162 -0.00119295949464797 0.0107264980047327 0.762712518950924 -0.686021647528054 -0.363203466235889 -0.436648096365973 0.519983735559231 0.2105988686264 0.957138409793351 0.158917192143705 -1.04875883979759 -0.400058706154252 0.866458340447801 -0.297254271478045 0.139517011871151 -0.960751623993772 -0.825274241766067 0.324027287803119 0.649784695957051 -0.0494598005886862 0.239111232147104 -0.607890508120191 0.242507912561064 -0.919265422300012 -0.0354802837786451 -1.72879334696432 0.343831920281848 -0.206280446027464 -0.0173457624287322 0.0415724043194049 -0.355101396760589 -0.546567061503977 0.524330565514321 0.542725513941359 0.240101501343719 -0.571349531761979 -0.264683829640939 -0.514619279304277 0.232337666315786 -0.594785306762874 -1.33897894778943 -1.04448445703149 -0.9793604414405 0.262676248417239 -0.633383788941836 -0.838518767994171 -0.176169858174046 -0.671376075790388 -0.915024754532126 -0.900841271285318 -0.855579388810562 0.269984970138018 -0.0103760636696115 0.67775147181156 0.426369316866687 -0.728295906102843 0.147862253468017 0.551330769387784 -0.166155008512685 -0.78101104156732 -0.0439206776289722 0.111903377448808 0.445450088682328 -0.593454514699032 -0.533319975225184 0.276296322385245 -0.159354983628588 -0.978940428265202 0.135361957566578 -1.14283181884955 -0.425017119741709 0.278591487985221 0.465602274735273 -0.0495946696216432 -0.121048097650075 0.157799711355476 -0.722796244843929 1.119445692901 0.74369651331166 -0.122005895986148 -0.0208842115897424 1.01583063030516 -0.720806334969032 0.117476603536623 0.329282460988568 0.496340778750587 0.47196616957392 1.13847761408921 -0.802612093983525 -0.358366987886013 0.161030290420004 1.18117480485196 0.712668788955453
-0.389760651713881 0.685877439508465 -0.140492808207184 0.540102775212546 0.340945573993095 -0.26704693608912 0.569148369852328 0.0600054021723997 0.393305373434832 0.432280363236265 0.803367836036591 -0.528529112787496 -0.0507362276829321 0.576644966995246 1.07502687270691 -0.644669924096175 0.732427553972894 0.839768057875815 0.0758797830044414 0.0734170966548422 1.09804346026056 -0.297254271478045 0.2070139042959 -0.885500682805078 -0.370046864056349 0.695683992330954 0.263899821118587 0.346379489453115 0.488322435922085 -0.203468609525494 0.251600629535887 -0.870805092017909 0.204295727968856 -0.823358893726451 1.26008042197299 -0.251400623060137 0.234215467956714 0.642377856793162 0.160809176843232 -0.193461698888287 0.624144165399645 0.574277701145023 0.539752720900079 -0.140594127771414 1.17371048517331 -0.244154866466857 1.55017903891277 0.0490578460207047 -0.385207683303417 -0.570610319702787 -0.925195172553697 0.367542268908992 -0.19534371260141 0.004393690588719 0.813474647330192 -0.577119141247776 0.230144355224845 -1.05363628358569 -0.768040135936047 0.577276895449364 0.0627841581641641 0.835244006552118 0.633467452247259 0.0203637809005533 0.861255020824161 0.715004424982447 0.417989366787118 -0.502293728533305 -0.0288581064550925 0.178523197091846 0.445450088682328 -0.435961979958441 -0.312845088160445 0.94906703476641 0.102337497190092 -0.518946157972982 -0.0225561619587296 -1.31597491975636 -0.378053718456764 0.573994356222849 0.465602274735273 -0.0656088598246706 -0.413686606362869 0.563651992668206 0.209521597846025 1.18245989604534 1.43375558410065 0.481953548660515 -0.87474572072943 0.784382745835734 -0.720806334969032 0.117476603536623 0.300446149256387 -0.448994718243064 0.190797404945954 1.46911586264567 -0.683864048981812 0.063467791472757 -0.440892047683084 0.544789754852696 0.696654598752448
-0.954625467383879 0.670927529824571 -0.411437419112566 -0.161228045680553 0.284960499261065 0.208442941746858 0.156749786045631 0.192799696453512 0.265374631089161 0.193516820738963 0.801705251444078 -0.663907337869138 -0.351365640876929 -0.0888686937305941 1.13167935195716 0.130194593216955 0.944104525731378 0.438598494814704 -0.629485830030644 0.205779900112784 0.99545219254589 -0.297254271478045 0.220155171594728 -0.968965565465459 -0.676014478488483 0.558228960197009 0.769359281577889 0.211198265735142 0.475576962162869 -0.423117890033992 0.297674911994209 -0.8097687337171 0.286579439530243 -0.881348334119572 1.0352394607599 -0.0634420983438651 0.630940966197276 0.465861054158185 0.380039003688479 -0.268423063869763 0.62618690073666 0.592178129022487 0.750860935446112 0.0467976442919994 0.677869589070689 -0.00935290636447518 1.2758535380415 0.355318088607888 -0.479276887634655 -0.795100509049355 -1.05997978212838 0.250201145616851 -0.553753491627228 -0.457645899353206 0.658456428837015 -0.502044397353899 0.202288750175944 -0.148965037463805 -0.479516302841649 0.492414860006768 0.0520537898658519 0.699865781470476 0.634912065418173 -0.119004426644601 0.692089182603352 0.741702400745821 0.32125011118318 -0.167779924967238 0.0823418436500566 0.11407501558302 0.445450088682328 -0.571340205040117 -0.308194424259641 0.766721921885968 0.273504073844973 -0.861457892302485 0.265579897903728 -0.76892884729364 0.0277210148648291 0.387028109199135 0.465602274735273 -0.0637874912289829 -0.110607842704449 0.716127361449424 -0.097244457076044 1.1394414679058 0.713319230868441 0.14840146226414 0.323843908974684 0.87210174946287 -0.720806334969032 0.117476603536623 0.308914223387817 0.567164574485815 1.08685263486217 1.5868155930148 0.0535471059581912 0.0912408389024859 0.611618961929605 1.10333048146305 0.698475967348097
0.170801997757827 0.448384409548562 -1.03557442629408 -0.593707448332297 -0.334574800638111 0.0147057624661944 -1.11605803024479 -0.304560437757042 0.185893356366155 -0.353071070169061 0.609814229040217 -0.687117959886344 -0.466604717891655 -0.583723078371092 0.286884352859505 0.125032477809952 0.533610304231095 0.192100566661277 -1.03481262360856 -0.0841563037194522 0.958010906401136 -0.297254271478045 0.00827346188305992 -1.077483120962 -0.991695050962102 -0.368644034286755 -0.0305488620225456 -0.115329977515696 0.240630349032118 -0.420035052752423 0.314096345738821 -0.848422223348825 0.413037134496135 -1.47699820056652 0.596679766561786 -0.54288314155031 -0.199901523063346 0.221791999610151 0.257655550389439 -0.0660987278887656 0.586436676981347 0.555657317813125 0.759726207684553 0.107299884740917 -0.0714982302443877 -0.481999205317064 -0.284884796220275 0.0389003771094368 -0.971789418451524 -0.971610191369522 -1.05846459281309 0.248223251240295 -0.515863009943654 -0.916466637784656 0.158812014584748 -1.02719592361221 -0.852825024204303 -0.561963803488972 -0.821659062908107 0.0958626933664777 -0.00438153877989537 0.67665515945327 0.50665137143073 -0.920586109770303 0.582979336613211 -0.0940471913453089 -0.12340862264418 -0.910054461175508 0.102768731012107 -0.0875629584277355 0.445450088682328 -0.594550827057322 -0.598420682964412 0.279911829973503 0.297960383540426 -1.18455220721334 -0.00215210394643306 -1.02627529838583 -0.478893750415159 -0.0626509243278197 0.465602274735273 -0.0144096996861204 -0.0913962355269071 0.312923971387688 -0.894279998621151 0.992462216562727 0.348329786913061 -0.188032913900109 0.390736677565244 1.00133517078706 -0.720806334969032 0.117476603536623 0.364283392375977 1.16834287193979 1.0905765231932 0.482737622930282 -0.825269649500976 -0.332081996676788 0.684168681933863 1.40650769162772 0.747853758890976
-0.536748067878766 0.626601174282812 -0.647665254064693 -0.211373488100943 0.0495337106180903 0.469331834305574 -0.236076644656817 -0.38899116757393 0.166163437754552 0.261676163452228 0.807734072215058 -0.6832867163532 -0.269437507340929 -0.15537135725293 0.927626920635275 -0.0666817330020831 0.709311875331558 0.472551137433535 -0.676020547853562 -0.566001755830217 0.848477343572415 -0.297254271478045 0.195068691943228 -0.978283796188078 -0.752720916113435 0.583644342933354 0.510993982911438 0.123922059724674 0.630693578986462 -0.602457488828963 0.220434617817517 -1.02570629680829 -0.208148629040056 -1.62772745524521 0.465464511946349 -0.222395229207274 0.0185632544304895 0.656997955465016 -0.299602342738166 -0.716337256415917 0.455494583118521 0.472123182360794 0.059711192200809 -0.781402676344474 0.465764263142196 -0.40442461309933 0.668895779207265 -0.71240663812796 -1.55300374416569 -0.932854827503984 -0.952095385043817 0.306697354832052 -0.970169370963655 -0.820488845897504 -0.540100076620159 -1.0976593626407 -0.723001837264192 -0.772374409343621 -0.723284307028305 0.436552271272418 -0.0421490504885806 0.680486402986414 0.269520248687706 -0.608760960250251 0.126964560273644 0.684444832508393 -0.391866219088774 -0.310442645770957 0.0358798521147255 0.188207935107703 0.445450088682328 -0.590719583524178 -0.809184735146397 0.671033520451375 -0.215380941720105 -1.04339761795673 -0.422010951878416 -0.575889844059716 -0.165351707898678 0.569447501469724 0.465602274735273 -0.063098173492819 -0.351501112554347 0.235128230578686 -0.431665974922495 0.43432610459504 0.320225563995381 0.161101245769841 0.240552636215283 0.99319043342105 -0.720806334969032 0.117476603536623 0.242922512865832 0.139298982056279 0.567900113025161 1.15270541742495 -0.506839775573265 0.556648999405729 0.141170616144733 0.725589356450301 0.699165285084271
-0.326429118109787 0.628766745732419 -0.703560614034839 -0.209544002390351 0.246389302489865 0.509389852898617 -0.270581761617356 -0.00197743775342147 0.326030556212723 0.155882093311522 0.806980335099688 -0.692049766681903 -0.214319263927668 0.18555805534117 0.249288426923363 -0.160957863834488 0.693975502603791 0.238379517726124 -0.738579808668222 -0.336377604545237 0.752829099401804 -0.297254271478045 0.201317855864182 -1.33262343591471 -0.860933285748197 0.389767982575371 0.16966031665545 -0.00684832872564552 0.477342180338012 -0.27466137351067 0.130630115410675 -1.17705832287026 -0.151897215601047 -1.76069007284318 0.430155674979088 -0.164547389722953 -0.083071485926814 0.387365224953204 0.256648185067288 -0.751747091102653 0.263597355214631 0.528811756156229 0.107197246400484 -0.63193303306089 0.804539803803886 -0.278337748097525 0.669559249268195 -0.317675688401819 -1.07800419019679 -0.971450990531842 -0.989257254095279 0.135643422575895 -0.853240065010178 -0.775765125930096 -0.24058284314147 -0.559626887312912 -0.507013834803067 -0.704994580139743 -0.504236435794112 0.230667153849311 -0.0295480374909635 0.671723352657711 0.132814333624933 -0.506565295604388 -0.111706748784469 0.335181250100949 -0.251441822064195 -0.299442355317408 -0.0485567821446463 0.180455123806592 0.445450088682328 -0.599482633852881 -0.897660391158518 0.956596578813759 -0.192945665751296 -1.0076056012609 -0.338270143422466 -0.596109288048362 -0.252639920757759 0.328479215231522 0.465602274735273 -0.0605096493997928 0.0154119580315808 0.877385292029808 -0.664688703965196 0.451316285610515 0.513304933330689 0.429759967989686 -0.133092430516874 0.774058505472536 -0.720806334969032 0.117476603536623 0.226542934647362 0.506265396298789 1.25327374409792 1.51602613887592 -0.489883768033869 0.11623841893822 -0.25903082175454 0.840576106893678 0.701753809177307
0.0910772348235766 0.500355882232825 -0.465881005275068 -0.621998808838834 0.00545940394688949 -0.357153227119966 -0.227215766853705 -0.0303276913446437 0.167746354470613 0.367636311093489 0.855246041109132 -0.6940877441004 -0.361581758630012 0.491128992613925 1.06883983616013 -1.0957859890651 0.28053160162722 0.447932121879496 -0.296001498131764 -0.171063613944062 0.721127932477068 -0.297254271478045 0.28448664053464 -0.0569180114502416 -0.673992771103715 0.907602463931259 0.152710865387324 0.183347659267915 1.19230406747568 -0.567128102054026 0.277643495413395 -0.967103531194145 -0.0761824224267111 -0.343468198982831 1.29425500771767 -0.416537311709457 0.30844061946531 0.517861749693925 -0.16080868997114 -0.757562215891099 0.444646466691549 0.76872140429736 0.275432410375296 0.850504764942829 1.35032372083522 0.457044393973477 2.04573992812677 -1.06977117535932 -0.357643770979528 -0.597954738654942 -0.818667962904441 0.411440272345368 -1.09524028944091 -0.114798628119698 0.591543709747396 -0.635915984419003 -0.313695345397976 -1.24784040614421 -1.32740398521109 0.945664706189826 0.168555789226101 0.669685375239214 0.00274865529064247 0.570385690817664 1.32834263039888 1.04226482713266 -0.160547112555666 0.179741822448122 -0.296160992668785 0.240647186358168 0.445450088682328 -0.601520611271378 -0.524920535564083 0.540884254300847 -0.0595157965106371 -0.345821450469125 -0.426825166316229 -0.54841354363229 -0.272689987447481 0.876928868567521 0.465602274735273 -0.123569320553171 -0.411037773197931 -0.114729768636345 -0.461960289428752 0.383946350733091 0.581653558252044 -0.242307362426834 -0.627294225985498 0.767672111288168 -0.720806334969032 0.117476603536623 0.262895402179469 -0.296550044266389 -0.186136540045015 0.391940341857266 -0.705662009578282 0.292361901104243 -0.920799270744472 -0.0447005946423732 0.638694138023951
-0.142892590753739 0.544475588334625 -0.159672573477284 0.12319178668432 0.326478129982171 -0.384429928128907 0.306583765455748 0.405072284661387 0.599697032720812 0.553019720223192 0.797795726011251 -0.681093442811276 -0.436751111299521 0.297035281043739 1.12362783666273 -0.427579967900434 0.70627052798846 0.95159911182162 -0.275653319885733 0.119841666277522 0.822263663488867 -0.297254271478045 0.224379470959995 -0.398284828693484 -0.509866649279024 0.988656257393789 0.288268838314409 0.365501782341962 0.932503391709687 -0.701609816186833 0.264214903936465 -0.846450864930076 0.176261378433302 -0.402492622522726 1.18963091255034 -0.587002381731854 0.46080748875663 0.479152071605157 -0.210063031829521 -0.556659505962813 0.614804913944127 0.586059913593612 0.690540125052955 0.56044443381302 1.09602183320006 -0.103085790960653 0.809590243129612 0.281090760961714 -0.572384818831918 -0.544117207126807 -0.969616514331824 0.333262243724934 -0.609120565615739 -0.352860070632932 0.695268199638169 -0.852574059965216 -0.438981502555634 -0.541023651715543 -0.488465500413522 0.688219822920332 0.0720934128062734 0.682679676528337 0.862770451286903 0.634817598262719 1.33276237943113 0.953935039425685 0.300721576773962 -0.533495417803169 0.0359357750836169 0.139761722284782 0.445450088682328 -0.588526309982256 0.11808390719822 1.02922263117259 0.213040124348829 -0.296978806286268 0.164241744000596 -1.1137796340533 -0.373015367610314 0.522335214406133 0.465602274735273 -0.0698659517764195 -0.449174640255242 1.11454283767687 0.491600156708417 0.978887738237113 0.824639586144314 -0.226319796182886 -0.678198176102307 1.05913925696162 -0.720806334969032 0.117476603536623 0.321931517071459 -0.148830789570637 0.503594850158622 1.00919540288314 -0.781274228628301 0.387037014843991 0.113254159875881 0.556421390539843 0.692397506800697
-0.240939245147705 0.683721715574074 -0.293611990790774 -0.276399376363567 -0.4327889665423 -0.17419976433004 -0.278991647467475 0.277340574408217 0.422308980667622 0.361599916818722 0.801722100463496 -0.684133233334046 -0.348807357270265 0.0146407812489487 1.06046925827669 -0.0850132829711738 1.0079986498174 0.219330498400922 -0.750091899671872 0.196069540727728 0.963278589370435 -0.297254271478045 0.17297709734989 -0.69790673998709 -0.553902607710133 0.398026703643921 0.657398005783745 0.185550785884159 0.594269242288364 -0.647928080720295 0.272949867553607 -0.766403428571756 0.215971024000484 -0.925480418489058 1.04873443406452 -0.361826056353945 0.314794137966913 0.562688109938784 0.0748699514296297 -0.374876413939 0.62509943174653 0.620613774816553 0.716317306904844 0.214098528118532 0.605289201929088 -0.187714460036322 0.735506658399022 0.00851884126936431 -0.870285078961043 -0.795543668185094 -1.03658257474108 0.2239544515279 -0.759955938630324 -0.873002083899911 0.512977075140064 -0.599692409157754 -0.600436579792476 -0.420181123557572 -0.502220832868934 0.551543002761417 0.0555705786242758 0.679639886005567 0.586775629288603 0.101479502481827 0.9003001704391 0.604956743370407 0.272211404672208 -0.468723222039444 0.170283352764624 0.104764535397424 0.445450088682328 -0.591566100505025 0.0584738150797571 0.782154984374424 0.170783851983885 -0.804583515958806 0.403659218487216 -0.998630416507099 0.0283708582764535 0.410007253764261 0.465602274735273 -0.064980837111538 0.0147553931432363 0.924650140498354 -0.0942645022334015 0.943929164533909 0.818268665248363 0.0510150595300896 -0.187032409541745 1.04144303799533 -0.720806334969032 0.117476603536623 0.330302537974861 0.171097917839648 0.78729124280321 0.948140946369363 -0.278062109176 -0.431588849699356 0.169017767737105 1.01182959356012 0.697282621465578
0.422951426333119 0.43772764089367 -0.982940865869091 -0.403904199790816 -0.0636265852469281 -0.279114923106952 -1.14420445162228 -0.510097122766756 0.176774856937301 -0.314184525366179 0.513415664585994 -0.686097784570158 -0.439072634669277 -0.501663236530957 0.540572476656728 -0.244755744161216 0.497434610624305 0.335772025773172 -0.924224249770947 0.0151793688057517 1.09825650364116 -0.297254271478045 0.0404311884524528 -0.99248711282841 -0.883695980486561 -0.269301563934416 0.0427061824985136 -0.0253479988271902 0.246097964493567 -0.413431285396287 0.367579971863299 -0.780052724410632 0.370566055975876 -1.21893682398548 0.63890278836274 -0.693562047359844 -0.0526305119760511 0.119526078821007 0.0147105746336772 -0.0481010788429638 0.651623328858201 0.629049244204613 0.778238357714543 0.219407633525334 0.0086272575725436 -0.474339955824217 0.0991691339108932 0.240086194323879 -0.933772882416012 -0.992301218119572 -1.01391326991734 0.343154234287498 -0.357282644526658 -0.788136571119302 0.327141182205008 -1.17328490110538 -0.94573073502494 -0.376120863433611 -0.906957603640743 0.235167689015338 0.0659064216384965 0.677675334769456 0.623385134621637 -0.769832050486199 0.692030372124911 -0.165579472575229 -0.409227317108398 -0.657033954289573 0.173649647189865 -0.204890832392997 0.445450088682328 -0.593530651741136 -0.390977382856134 0.256487094452877 0.191050055586945 -1.20572736815642 -0.274754710913078 -0.90268973871495 -0.32907086554487 -0.101581589353804 0.465602274735273 -0.0290769476411142 -0.0339091872011961 0.429444065822993 -0.979116963624069 0.60845822159789 0.461184282508274 -0.0917950204500034 0.657747395894197 0.902249316949611 -0.720806334969032 0.117476603536623 0.361292110484453 1.28405841466294 1.06088229170505 0.109380462538842 -0.547588305053977 -0.0735487589706461 0.807007095277547 1.33304897658303 0.733186510935986
0.136411988712435 0.690534318260447 -0.508741805159093 -0.290411543314651 -0.262850918453449 -0.518482226871796 -0.337911446275854 -0.366061824807031 0.300711785309514 0.323597240018508 0.798679762647148 -0.666791268182173 -0.350683007462506 0.081893492056313 1.24749284754587 -0.615486553794027 0.76707025390243 0.160952688329086 -0.694074187838891 -0.101236402574584 1.08122387010334 -0.297254271478045 0.268073625078588 -0.733745191497084 -0.637518711601677 0.423344882628068 0.773988738131977 0.00047238573366879 0.398661885374453 -0.399000400821334 0.363698242631818 -0.792852121687568 0.354361305443178 -0.684763297914564 1.09671862913477 -0.446516916879441 0.29350727586236 0.625575745613466 -0.0375592106849004 -0.162602245264873 0.648549650856143 0.656953832946297 0.790857048068538 0.422537388140475 0.772490436921699 -0.0102315586605831 0.738472659521129 0.207840861686365 -0.678525445970942 -0.714196166909718 -0.931444720021533 0.442531661237856 -0.480191864442826 -0.457069614462751 0.30934525244174 -1.31921258727128 -0.724615727663738 -0.893079613189476 -0.705931757476641 0.673710663686569 0.114601616666208 0.696981851157441 0.518901057112278 -0.194102177685996 0.883534734829031 0.57229414133378 -0.372040312794665 -0.406215416690728 -0.0468393626229414 0.133948393504377 0.445450088682328 -0.574224135353152 -0.455082251186675 0.368182181207798 0.252032193828175 -0.51139623143995 -0.264453926334149 -1.0469047021017 -0.376303743791792 0.503210051775614 0.465602274735273 -0.0556289711020791 -0.201184742339926 0.170287262193035 -0.509531007451738 0.982851732620581 0.806672409860691 -0.0158960646461112 -0.241671633549163 0.993542514622217 -0.720806334969032 0.117476603536623 0.260187496612641 0.0952265419842624 0.344046268379467 0.501871108860859 -0.911346992573842 -0.117342710078624 -0.0233291204490491 0.897913144423942 0.706634487475015
0.136334825977779 0.72077437909761 -0.608215337844735 -0.440060626624497 -0.239072276892514 -0.438182378537188 -0.705106284733053 -0.553784691879693 -0.0634618210673402 0.0856555466789554 0.802413920694747 -0.681460234275429 -0.393757235756025 0.149908445261447 0.957978729139408 -0.658265148885245 0.622976311267699 0.405516503337426 -0.784843446594523 0.0237525605299283 1.22313018415254 -0.297254271478045 0.157998535757678 -0.656749457193394 -0.694261518894461 -0.171634424315189 0.675033316937291 -0.0837888344341971 0.475585907762838 -0.604914459827127 0.493767619984822 -0.768993424444835 0.192465946105586 -0.770200463371997 1.15618384476418 -0.549876652636094 0.0710935294887639 0.217888435738382 0.347877728151891 -0.161969898746658 0.661781526399118 0.596256552069531 0.451060228516444 0.537908465240394 0.514027140568185 -0.140656789029458 0.445388060401588 0.16483076661196 -0.384190033774589 -0.931949340761719 -0.98293053872742 0.499939664974841 -0.634020541186559 -0.587730239099584 0.687204325210223 -1.15259256619257 -0.501451242052834 -0.497687534133816 -0.752171958305593 0.323850684927108 0.0327287808793108 0.682312885064185 0.311097472925979 -0.68770759408762 0.784156720070047 0.285473954050928 -0.256501511243911 -0.715195340837244 0.0222061167430265 0.0991356847699308 0.445450088682328 -0.588893101446408 -0.549474318219666 -0.054452356913648 0.303234686130032 -0.726102712154431 0.0895333249768403 -1.09043465549434 -0.483107321403195 0.309732687506419 0.465602274735273 -0.0533238259793057 -0.241178686120892 -0.0743492382898568 -1.07233129765776 0.940932955308948 1.1350856035338 -0.268531437408044 0.0878858392154654 1.01145590075768 -0.720806334969032 0.117476603536623 0.189718286420778 0.360762257398045 0.382864556592856 0.481711490671041 -0.791914745942443 -0.093917055651102 0.43113745417504 1.41893140790956 0.708939632597796
-0.639142597812039 0.708111751751301 0.0748061157379141 -0.494457370148827 0.0788495499253059 -0.619230108733286 -0.681487581917237 -0.521740783902516 0.339132305093581 0.721472884880384 0.813911650319091 -0.606500621374298 -0.120374521020484 0.41693248421192 1.66884934678476 0.0112607146350631 0.825782233745847 -0.076683715873895 -0.378995887869984 0.353769079917406 1.09598797679108 -0.297254271478045 0.221652107649197 -0.298920480823386 -0.0568337938416774 1.34976133107392 0.923794328098326 -0.322120137648272 0.0159329944481099 -0.467994985811252 0.315826156692904 -0.768447265519438 0.411583664408044 -0.548472566201856 1.21457493751593 -0.0639758225123092 0.880229778887208 0.490216340673858 -0.917738811898162 -0.370473102593126 0.641351909941586 0.710845636191433 0.930542822751777 0.511516775842747 0.661621315717277 -0.224079677738444 0.607283611819591 0.432705795193857 -0.898056537292049 -0.80031665691056 -0.808374299205537 0.457861714474061 -0.461685033141582 -0.296874231204972 -0.504584513200347 -1.71056524687687 -0.662967698692111 -0.903218172526524 -0.684736764055943 0.750851188293388 0.108625138270479 0.757272497965317 0.540687003074654 0.00887129871734761 0.854038508493282 0.831437643281046 -0.323340682993644 -0.150125614447421 -0.208050933146839 0.124192848282329 0.445450088682328 -0.513933488545275 -0.18927560582005 0.01563751763228 0.251498671659019 0.0134121573366819 -0.484918488112528 -0.602705421584422 -0.208568806511471 0.485620580540835 0.465602274735273 -0.0655734718751914 -0.287397987563473 -0.305693608575754 -0.63311157775049 1.55766724335085 0.602958406494134 -0.0767587762258152 -0.100950477100297 0.736984559782787 -0.720806334969032 0.117476603536623 0.255927978163792 -0.0709247090747342 -0.135149587301294 0.616375621318001 -0.742030638749537 0.0941857737180027 -0.269561340339108 0.605608746960923 0.69668998670191
0.0932950161734797 0.692345204245877 -0.255106385201928 -0.135477150065686 -0.201533921059168 -0.312757265134256 -0.73527264519006 -0.0460990068937114 0.363042773412933 0.45057708052752 0.813510026876533 -0.672773703268739 -0.276065863620321 -0.120193287490915 1.05822338686777 -0.155493076119802 0.710437680578506 0.0063901573077031 -0.813196536870607 0.0994536886294775 1.0355414579177 -0.297254271478045 0.167170399382324 -0.95332073519802 -0.505304587766633 0.357777880502764 0.590661139706763 0.0551547916417683 0.220975711491979 -0.589705033533978 0.337017643776708 -0.765288455492521 0.242333673885533 -1.05252422284596 1.23486138733766 -0.352237820303733 0.307141152224889 0.773165079404456 -0.0579476599835464 -0.353115011192383 0.67009423955194 0.567820114842926 0.512873816023299 -0.189420615217166 0.521600151661659 -0.575220342424061 0.143556026297922 -0.0217688870959858 -1.05216581749206 -0.861438045848432 -1.00717876114184 0.32276418279343 -0.757021491837505 -0.765503261749172 0.214010223727747 -1.30819911445987 -0.845215246383057 -0.671796283048482 -0.664884080768348 0.332578475917395 0.00811506009383671 0.690999416070875 0.256982164978854 -0.331392793556265 0.650727753121404 0.263094208099514 -0.295102979235724 -0.454850202174933 0.0290875084665866 0.131187908982525 0.445450088682328 -0.580206570439718 -0.423434480347401 0.46646964067639 0.239705581394216 -0.889585001096237 -0.0685337419086016 -0.968975723678557 -0.112717996215299 0.374850194100284 0.465602274735273 -0.0574814351668244 -0.204909421968159 0.307090694230401 -0.521769033925054 0.890074532595972 0.877954081392472 0.120963765966833 -0.0251571682211001 0.936014723033921 -0.720806334969032 0.117476603536623 0.180676577635679 0.101212440929548 0.450432923328509 0.499371056320044 -0.751592598709468 -0.274424946505616 0.15997805724464 1.08474235452713 0.704782023410276
-0.554972805853851 0.694745464982582 -0.146928374976493 -0.246587306254883 0.36441724401714 -0.25901344390937 -0.0172993559698254 0.129487445540215 0.390494793024365 0.455577664532929 0.801922682593601 -0.727641611319947 -0.440608720715003 0.239276729454329 1.3152480043615 -0.304359376456738 0.98021606065685 0.597566064056731 -0.542955505378419 0.105795131322082 0.930776654478329 -0.297254271478045 0.290277465149488 -0.58923263915954 -0.578078917308234 1.08445943170925 0.731039475067113 0.323874551528241 0.703008922274627 -0.666582490330742 0.273133143369002 -0.802373632024282 0.362372582041204 -0.385229984843748 1.1547142232071 -0.470580161325648 0.614320108289431 0.70821535377053 -0.354655872857345 -0.518316239752625 0.629967386393054 0.64317462595754 0.815845770183878 0.624134601590512 1.14026696016366 -0.056667777797651 1.10422554380869 0.136939550088597 -0.683256906257005 -0.538987195136161 -0.857792059728162 0.408293986831767 -0.28030977910055 -0.15293826358381 0.411279621378076 -1.03284098136621 -0.376809368721139 -0.426653062050038 -0.596886026636601 0.717964280363566 0.083497174240811 0.636131508019667 0.801192423600958 0.433977463495005 1.099563550896 1.0268207479807 0.0850668532312923 -0.195328053500374 -0.10249561008627 0.0444055232356406 0.445450088682328 -0.635074478490926 -0.144309198479318 0.994454118095461 0.164333307208267 -0.285543336449264 -0.310967204686737 -0.830382287409131 -0.291449792436598 0.436533581693582 0.465602274735273 -0.0651086835694424 -0.342990089430427 0.799119619692815 0.0675244899407355 1.06545217793012 0.605822409596564 -0.146049590677862 -0.0491946473202445 0.882580596473757 -0.720806334969032 0.117476603536623 0.326684731008614 0.353543816954769 0.888634303812927 1.11684688775416 -0.633557976259862 0.441298811249367 0.315591580290296 0.789714987094385 0.697154775007667
-0.0638267986620408 0.664165273268331 -0.478365460145793 -0.398413430008827 -0.277708416429094 -0.354586518860448 -0.466212636406687 -0.140439796768895 0.204578143683858 0.209737789368713 0.800738537924874 -0.682281022794634 -0.396737455746062 -0.211991534146877 1.02415591674839 -0.2362775399805 1.02012414225522 0.170038116043562 -0.870145463258703 -0.00681262060601016 0.993606844208818 -0.297254271478045 0.136992216430637 -0.742085059609091 -0.671093939989269 0.296773832705862 0.742685892477457 0.113592771402641 0.350627957690552 -0.518657166956025 0.319998791619626 -0.766409543444793 0.275202653318471 -0.856631451729335 1.18796732347816 -0.421687135678219 0.361028662088052 0.709606967663197 -0.1404417198069 -0.217022373304292 0.640061388395796 0.639931514112629 0.742758005902364 0.0797356813184713 0.562232227111817 -0.347753960313461 0.462584701003854 0.0163101303982449 -0.786776349005388 -0.774461598045894 -0.967324132157026 0.32551013054213 -0.58125383205209 -0.69534482002198 0.358860309314182 -0.983808443280931 -0.639561024677534 -0.644250338788991 -0.677043787293614 0.435274484380487 0.0601366302844543 0.681492096544981 0.382091322641 -0.153698653272799 0.976121814762208 0.618970688407769 -0.109032983922849 -0.484668993675067 -0.10010978130609 0.112626079894603 0.445450088682328 -0.589713889965612 -0.434036118338537 0.406355287002065 0.277441024496678 -0.583114285413265 -0.0959036831366723 -0.953476498758736 -0.261445123516442 0.340927499467771 0.465602274735273 -0.0596123412569364 -0.11640122883209 0.316299474489799 -0.433974675203128 1.08066457185635 0.67971180852867 -0.119097816851385 -0.0579174888690676 0.911709134609224 -0.720806334969032 0.117476603536623 0.288207156978738 0.40353035232572 0.777503781381032 0.838842098199083 -0.910338093861814 -0.220438617967153 0.191289537616903 1.03035901514264 0.702651117320141
-0.0299793518976808 0.645047557841153 -0.0836150707565402 -0.495872669428072 0.398758247819181 -0.777034982680564 -0.450189715898406 0.00302590915140909 0.512808869973828 0.647736773270447 0.856434840158965 -0.677187358005749 -0.457394080868571 1.04023575797852 1.77838527122388 -0.465911357645791 -0.314890491727549 0.479457460118088 0.0816299390205915 0.661490120337077 0.899618943445379 -0.297254271478045 0.389225723890333 0.161841058296743 -0.353814402023751 1.8821858844346 0.144821495847937 0.0225690866994348 0.688133849127603 -0.529303866199707 0.295731243728598 -0.712796501705596 0.52335305397924 0.115696097596229 1.48030325480635 -0.450901205832587 0.973261014963963 0.225113639612687 -0.633800721349736 -0.49213632495332 0.654406467680828 0.865404469163986 1.12972358687427 1.41093226875477 0.72866692136997 0.528787146364767 1.61555574233595 -0.421224665985338 -0.369680488716274 -0.586754646124049 -0.763318446255301 0.459167192665467 -0.506020557931126 -0.158968463220676 0.521473226278706 -1.20037053335732 -0.803424331593178 -0.583648405720054 -1.04679915103694 1.27675399591645 0.239528509448503 0.686585761333864 0.932579672081762 0.94663487100774 1.54026789555751 1.09242445755675 -0.140735663015216 0.0401011467625166 -0.468479455689291 0.203244006243364 0.445450088682328 -0.584620225176729 0.245580879175414 0.328162637843009 0.0216064901539117 -0.253456043379894 -0.310875731793622 -0.432354360470196 -0.503120012039089 0.839457300883803 0.465602274735273 -0.0863298328352241 -0.369830411741375 0.523268977497311 -0.0988417829301465 0.387564393483684 0.522601594113884 -0.32969364121764 -0.778095562624771 0.815597372813407 -0.720806334969032 0.117476603536623 0.331105530608858 -0.0685948143850933 0.164020495863335 0.412046137215208 -0.244485770310994 0.397679800845353 -0.582110732393352 -0.0467534001325159 0.6759336257419
0.557064506126066 0.766145980519492 -0.123415355305588 0.166356553874039 -0.179686583781134 -0.46881521355699 -0.999935454187283 0.0130838351594261 0.721367092693192 0.493728705717195 0.792915940860199 -0.680945575280525 -0.374133211913021 0.172632898921322 0.932243122050979 0.121080388681783 0.57979420367453 0.245705034044684 -0.271162184973727 0.308698835894861 0.991225605531663 -0.297254271478045 0.175900166869938 -0.648584731449871 -0.668651792154702 0.0861237818779284 0.297874855027767 -0.0297105536883305 0.678146520221519 -0.42683520118582 0.206478801112534 -0.710081718690439 0.482543244251678 -1.0504046626601 1.30680804257373 -1.01587660934531 0.340295065449786 0.873016400740522 0.623947062079894 -0.0442715755294174 0.717872023707119 0.587367472835799 0.799865844882955 0.574706538593839 -0.0346910494920127 -0.535776458654275 -0.208105315440358 0.491545183940482 -0.790938713853366 -0.710344963826062 -1.02365576251937 0.17069105319964 -0.670325866699358 -0.726041429812396 0.598818412438109 -1.24194112622789 -1.50175839759178 -0.314858224858753 -0.706339342521536 0.501474799719859 0.0226051325347405 0.682827544059088 0.709561413030292 0.251198238363159 1.08482709117473 -0.274410985188915 -0.60855705504769 -0.322468950947369 0.265065615348721 0.10243556156382 0.445450088682328 -0.588378442451504 0.418149596561429 0.267755119878085 0.517526621168303 -1.07495132852322 -0.606666276843078 -1.63850773386087 0.407915641488183 0.45183685007009 0.465602274735273 -0.0616572655572125 0.184875730586128 0.87982623614646 -0.386329113724412 0.458865202003528 0.35237988361197 -0.380696699260921 0.138809377180856 1.31079078090239 -0.720806334969032 0.117476603536623 0.332332219939286 0.768533997604397 0.927383537505615 -0.437172912373449 0.0531797929698532 -0.0112631047831734 1.02924174616097 1.10673721668086 0.700606193019888
-0.743043962650407 0.604238987101478 -0.654545914255639 -0.598846943352514 -0.0439653005986979 0.17781700338056 -0.342674211382493 -0.660485799681958 -0.1045216418757 0.185837742800249 0.80026535353777 -0.698030120518293 -0.440751814462434 -0.483342505356133 1.03507691094332 0.0507431165224469 1.06068680494009 0.357342069702225 -1.20600884285592 -0.413742354254296 0.987411404028955 -0.297254271478045 0.209457748223613 -0.925043439685947 -0.761434296919576 0.556282459985393 0.98993271238663 0.0968201691558409 0.362017356341617 -0.609369070813064 0.389005550943252 -0.845684630804759 0.05171012752531 -0.731271756726007 0.688395316356904 -0.102590900651674 0.428574545909439 0.454485250423137 -0.156690629991721 -0.351682150031455 0.627112054009716 0.535640426357122 0.469831369516915 -0.0993043181386059 0.742599487385734 -0.126055708778158 0.816917153210522 -0.167833242914787 -0.589310508679938 -0.837433235950786 -0.937325530266182 0.492265967939561 -0.774326412656255 -0.556685045879571 0.22229965731808 -0.948237155878685 -0.228829995201191 -0.692446351134389 -0.711882116697279 0.432592636030691 0.0235960187119026 0.665742998821321 0.201836730623957 -0.785760073102037 0.921500423366093 0.708066034961135 0.207897092662041 -0.482361425962138 -0.0881195892729469 0.14625055391821 0.445450088682328 -0.605462987689271 -1.04030652411876 0.32177465351882 0.228682779607708 -0.758657156468034 0.286328013100715 -0.515122583126634 -0.518505808713265 0.486729015942434 0.465602274735273 -0.0641381508463793 -0.524750479245956 -0.279757156062671 -0.567700856297243 0.775240191511142 1.04182927534695 -0.0837688581231847 0.165921936920932 0.943598340748103 -0.720806334969032 0.117476603536623 0.188225399771893 0.358168411712714 0.313694157933209 1.06811028562009 -0.432551173086179 0.284442495786838 0.361886645146281 0.961775464140431 0.698125307730722
-0.0451373783955126 0.645554478484657 -0.738571364048355 -0.573078673190647 -0.302730298767705 -0.4394078424948 -0.367058590711495 -0.290129501137011 0.100417201569473 -0.0244314166156453 0.796842859603892 -0.68844551213387 -0.427101745926566 -0.143131662900646 0.588451730532403 -0.349725303622121 0.937043035273229 0.197227244629808 -0.910320192663152 -0.279293304587501 0.861390446781606 -0.297254271478045 0.0552188444433551 -1.08868933874115 -1.03002154595691 0.050185952143062 0.763300072526602 -0.0136377536500892 0.340521105698666 -0.564729502706087 0.20866199999435 -0.789778442668403 0.245343428578929 -1.01699184836631 0.931657858816214 -0.233441610942471 0.479624701432374 0.430332992733678 0.0990360695770986 -0.417200721310596 0.633139505297997 0.585265103167803 0.479507399593704 -0.063192854094854 0.354937280995239 -0.355072470295444 0.456261350552711 -0.125303443489347 -0.656710761998891 -0.94012252806271 -0.969583119850281 0.21795817428173 -0.593609729268442 -0.707078751980027 0.125858850500482 -0.968526941759109 -0.729316500877738 -0.565314714890957 -0.755489694678303 0.244944287766806 0.0115140423978112 0.675327607205744 0.308834756747985 -0.477516945029511 0.544831873219824 0.394719609552949 -0.279389567071767 -0.549321088585481 -0.0337678631962135 0.0950948897262123 0.445450088682328 -0.595878379304849 -0.637488686466463 0.15718078264107 0.0770593388707875 -0.622387506431302 -0.100459221628857 -1.05364450888258 -0.452060853666662 0.246851194730888 0.465602274735273 -0.0505783658330268 -0.16419286872896 0.391542014002692 -0.714659637224878 1.1795655841976 0.683985989298375 -0.253197803055352 -0.172795921382134 0.921229043623599 -0.720806334969032 0.117476603536623 0.302942096776133 0.638222980178788 0.908180044104116 1.14258802102214 -0.944904385324459 -0.202044800616142 0.243069168338145 1.06997554240637 0.711685092744065
-0.402494458669611 0.74150344532705 -0.344055081882095 -0.153688209930031 -0.627140877985893 -0.208904794056606 -0.592348102712425 -0.0182832298838563 0.401829850382762 0.329021370896339 0.807174452120368 -0.621063898682769 -0.180028187380844 -0.0159972411089437 1.05025841794711 0.108553515170457 0.552179487748595 0.169313103536409 -0.723001943459058 0.306274682951697 1.13063882199902 -0.297254271478045 0.218012160457031 -1.06869683982762 -0.434932956835527 0.328200720620351 0.762594128377051 -0.0367380004802603 0.179356235711664 -0.48331292850446 0.324911387434717 -0.725337197312757 0.429517281158641 -1.08638943877796 1.33373739682004 -0.0263699015663752 0.35532885153657 0.920175857767308 0.040264778710667 -0.261669337027001 0.628467522444954 0.725094108545546 0.730175368924012 0.329092708812002 0.453400668231738 -0.231568588314359 0.668604076064921 -0.00556470368939489 -1.11340619682012 -0.766523156265083 -0.932230930231051 0.289430428220999 -0.489356454922571 -0.886596116975328 0.158960946310359 -0.834213057171915 -0.835790560625354 -0.694180941580682 -0.580767496768909 0.555484616284184 0.0692137246552917 0.742709220656845 0.647811816029959 -0.0510373416878711 0.603602584422568 0.316058416191956 -0.323559432392191 -0.480867146714978 -0.00548541924296121 0.0756953186661305 0.445450088682328 -0.528496765853748 -0.0852621492491474 0.225369184802072 0.106011311317241 -0.712810321343933 0.252562463566573 -1.18416426396692 -0.105734152613771 0.369426652557632 0.465602274735273 -0.0624352021174698 0.0560599607933815 0.59885446609769 -0.680711583794303 0.975935681963334 1.22483405720208 0.000228531857740817 -0.232687148167288 0.939386410337389 -0.720806334969032 0.117476603536623 0.294313674336852 0.0561993879602968 0.620255285691285 0.56934982616679 -0.347408012201171 -0.57743881210182 -0.0203260230725374 1.18147544429593 0.69982825645963
-0.78723000159769 0.682834925376162 -0.266593495132774 -0.497574178363495 0.159827201580054 -0.157134803391224 -0.166144485326049 -0.053423231835089 0.254189281044631 0.401774028074138 0.802179412962771 -0.661723829517951 -0.305867373561771 0.229931646495574 1.48978137833528 -0.200621129381538 0.698182185462204 0.312105914673031 -0.809186328438727 0.294868323195309 1.02729922865446 -0.297254271478045 0.184266654928113 -0.527619585488609 -0.418620518737793 0.843339234999485 0.832157588982885 -0.0715523263460353 0.439628073569381 -0.744712968328567 0.315905205718862 -0.781918764495138 0.241890024778553 -0.653193420868709 0.956144653146815 -0.35463490912124 0.671896156170169 0.473545790107152 0.087820366019631 -0.620380608000274 0.626942019839543 0.610793921476364 0.719381339601566 0.557950564579739 0.894532622933728 0.0887082926501847 1.11221296598076 0.335667987536922 -0.894905252194685 -1.04203387931344 -1.03892998948466 0.276037125320948 -0.794979588030353 -0.594706706552191 0.158840613842262 -1.18139394833106 -0.237404272388519 -0.223558817702164 -0.610498586416682 0.660955145178958 0.0572254756554883 0.702049289821664 0.485796334054909 -0.447072285306616 0.782718084676194 0.815849611391036 0.221031595720676 -0.066882114846755 0.23125296725743 0.10347506279671 0.445450088682328 -0.569156696688928 -0.00617908319233717 0.264092074040528 0.182779666858251 -0.376233936406567 0.0732390652471627 -0.655376254059784 0.153621429666364 0.418336639067598 0.465602274735273 -0.0638934537695789 -0.0687263618292085 0.359352113877645 -0.332112581216201 1.42648870654701 0.537027171082326 0.0639245295992376 0.56201765748845 0.961389359838951 -0.720806334969032 0.117476603536623 0.306329819282332 0.509796644281516 0.661087734933206 1.15139022659034 -0.23356104579829 0.126247104413622 0.439388706970274 1.00831265671019 0.698370004807553
-0.734081907100836 0.594492511165072 -0.407943656779793 -0.494998363260671 0.251090857575631 -0.0288751869165273 0.125382048531182 0.111643567077518 0.352459002504959 0.276276748757314 0.804072594418087 -0.691625493237671 -0.310530373004706 -0.107307409321874 0.924917037610469 -0.0522649704397595 1.12165383571786 0.460724137122642 -0.702733349931094 -0.168227935602435 0.892746292791565 -0.297254271478045 0.11401158197729 -0.633951517934398 -0.677204722118234 0.530678612653115 0.713957631526688 0.197256780152729 0.710688916035085 -0.66676138626247 0.301489529241909 -0.855886696829527 0.0413750077504734 -0.605187745848188 0.903807938489249 -0.209581257245244 0.563044857269155 0.516896303224646 -0.281343057332772 -0.445322195115075 0.628016939757771 0.522570163240842 0.519436849012901 0.130319732887762 0.793326911997956 -0.22968094512164 0.934082136160054 0.0682160040048974 -0.639597033574045 -0.821561308228733 -1.00257958353487 0.338239760048403 -0.808558213945035 -0.421426409654197 0.297027143476602 -1.0852814160078 -0.242623053157031 -0.58701001876025 -0.622237335197737 0.354496747709512 0.0092696226744444 0.672147626101942 0.432600621852511 -0.0253652897502853 1.03078557779626 0.731695163654527 0.128891861257866 -0.551158904957561 -0.0575901204696956 0.17118620225694 0.445450088682328 -0.59905836040865 -0.711011108610399 0.7493550011442 0.1960706183849 -0.599057488414269 0.161725614587069 -0.859781497597877 -0.298549196285425 0.415263759232814 0.465602274735273 -0.0646453590461164 -0.534608101571427 0.474872456925482 -0.126716954144512 1.07495614831916 0.728281419048261 -0.149858106141806 0.180163774629295 0.920219267650212 -0.720806334969032 0.117476603536623 0.312186976344267 0.590156747193839 0.67915201191302 1.19718755871463 -0.530485983127663 0.382491494668353 0.633072820329071 1.0295683597281 0.697618099531005
0.486965478410542 0.485278552029149 -0.932079262784706 -0.310119095080052 -0.234166808935422 -0.292070728553985 -0.940811960181286 -0.3489503851241 0.272762407555013 -0.206101596393959 0.56440432478214 -0.687766214057765 -0.428303201192439 -0.405210427909859 0.379124791519472 -0.264490399731563 0.559300327316372 0.348594033296243 -0.85868360574178 -0.0882897760878249 1.0118476361202 -0.297254271478045 0.0554401065647369 -1.03133913258481 -0.91621330945856 -0.234088966663976 0.123773734657242 0.0352422995891925 0.287920462756263 -0.450283088371637 0.286277282890576 -0.813104957549175 0.298776293235114 -1.3026141271989 0.699614127359991 -0.757531879569346 -0.0826774917748157 0.227013203016761 0.116602755965952 -0.238119650910382 0.618568227279847 0.60542959853855 0.641797692022162 0.0519195418994707 0.0397623019956214 -0.501280219852404 -0.20960146316193 0.137295787508105 -0.98134954334625 -0.955307710600795 -1.00922571585443 0.266488392739685 -0.448957066836883 -0.814549693443604 0.224463336648993 -1.13444588102299 -0.981187925789782 -0.460328391148479 -0.904414551189625 0.249816054202658 0.0422360693344425 0.676006905281849 0.577655129670473 -0.604032491817616 0.571702134035148 -0.172899953901985 -0.37741562173626 -0.637354664785422 0.215147193821358 -0.129860306576825 0.445450088682328 -0.595199081228744 -0.388996194129204 0.366703216216245 0.121008563984067 -1.22135013701871 -0.28333684084667 -1.17442551575215 -0.288823623900521 -0.00705531929301479 0.465602274735273 -0.0052057838935651 -0.0367302667646244 0.610775079964111 -0.921831025217394 0.646322048405721 0.406699438338149 -0.0719520647149078 0.341254676007911 0.956312197165995 -0.720806334969032 0.117476603536623 0.312930762448825 1.06739006529301 1.03399033790949 0.348359666414431 -0.789229528716633 -0.191162959507372 0.518429965447874 1.27359391697684 0.757057674683527
0.626961047107366 0.379037351086561 -1.05348788089383 -0.757215809828302 -0.507226056877401 -0.490043575366106 -1.31107621677787 -0.701200133531485 0.00572914979411986 -0.317664072250892 0.576827023562631 -0.687429492099157 -0.463009840648444 -0.614304977798776 0.291459527295251 -0.353153826301902 0.665043385488432 0.076354492051989 -1.07540716310839 -0.137319482226306 0.969959825966561 -0.297254271478045 0.0403325032858238 -0.969826847934652 -0.93877774823434 -0.226852318249645 0.170641634381427 -0.257396779498087 0.200740819806855 -0.524036971325442 0.362716650501362 -0.842177823997006 0.179185675184472 -1.36769243484122 0.602245399720071 -0.763038421442406 0.004451403745448 0.0363787988794802 -0.254037209057477 -0.221695171600248 0.594961484172681 0.606047480655154 0.647272345186363 -0.0546789612097561 -0.0992637272069197 -0.551545746601429 -0.114040287669432 -0.0870972223184402 -0.93269226401858 -0.988461880853826 -0.99916432388322 0.35844261507761 -0.652336196885026 -0.869866934442689 -0.0255415279039776 -1.30437770419695 -1.00944682896121 -0.50228952961334 -0.837219731521079 0.231092384659991 0.0483074142070144 0.676343627240457 0.378954362284721 -0.789672689179698 0.486314743278916 -0.0457105014503491 -0.495330708802923 -0.735351471893772 0.232670651381912 -0.109911462460651 0.445450088682328 -0.594862359270136 -0.720118912759072 -0.0228103492770734 0.102171976676964 -1.18737933927289 -0.301494828884935 -1.04503650451794 -0.359530367625288 -0.012262756585936 0.465602274735273 -0.0150479881246017 -0.0799228469689383 0.0854673753382768 -1.17488279367389 0.360737142889748 0.118310767184651 -0.35721337887251 0.40370936033023 0.770053920228687 -0.720806334969032 0.117476603536623 0.318678580219126 0.894851095791911 0.7591658727207 0.0532585741782579 -0.774663928938297 -0.401164143729431 0.499048882495417 1.18451079785599 0.747215470452494
0.260839296377756 0.511019042674537 -0.972199322126815 -0.777914777452302 -0.413926955912373 -0.247390197105914 -1.40935981142099 -0.534856252288396 0.0727604118639115 -0.263569844286203 0.64736353777753 -0.687877209048748 -0.515298099673052 -0.60678316332545 0.528492454257116 0.0842754146914134 0.645188166191298 -0.0371524650214685 -1.24798700976354 -0.0432213356249772 1.12742668035704 -0.297254271478045 -0.0227156053783802 -0.914945742723614 -0.852339064837553 -0.317778555573909 0.116977753994544 -0.42683117984418 0.11852075333806 -0.501018035166299 0.459186044468412 -0.899539310623554 0.23390137616438 -1.43968339105231 0.637192681793701 -0.668950171089388 0.0407138321448642 0.0752365632513126 -0.0902276449030281 -0.0395215929459894 0.539794631808934 0.554732050180059 0.735658045610581 0.149182995898906 -0.173754158138408 -0.630027133490452 -0.582687196271239 -0.0642243983958795 -0.882517030278699 -0.941433516307667 -0.998442784716613 0.457813643376072 -0.699377970803287 -0.944014969742379 0.0696880632799685 -1.18755795563623 -0.825730837476594 -0.433385140739906 -0.745412929693511 0.0914467194349079 -0.00082792110329616 0.675895910290866 0.309078614064838 -1.04820519437463 0.519164643511373 0.0181424137243926 -0.306408735590575 -0.701434324466035 0.22028820913321 -0.0490245064039977 0.445450088682328 -0.595310076219728 -0.85426565348972 -0.0846885951537701 0.256351826535626 -1.23775217072232 -0.0863164755078089 -0.893663266242464 -0.433555146555764 -0.0154278959037172 0.465602274735273 0.0455185313840565 -0.07355107750908 -0.037690243030119 -1.2488877697835 0.575590881812996 0.120167436583998 -0.394164681457254 0.674412947915132 0.930662941967803 -0.720806334969032 0.117476603536623 0.3203042584671 1.24434934228362 0.991938703802295 0.327850844819098 -0.963000346837533 -0.220016228963437 0.769090897764717 1.459617214431 0.807781989961148
0.072086026428631 0.711605513197547 -0.476715821153327 -0.522405286060012 -0.273687106231296 -0.286304799882697 -1.12375974409932 -0.576143401601384 0.301372792126678 0.449383026239112 0.825549392920839 -0.684402771428028 -0.307320563437625 -0.172521516088576 1.2963135103395 0.0117562516818396 0.65277119662421 -0.193360745206046 -0.984850327357633 -0.221262246700134 1.14712175371241 -0.297254271478045 0.178009171753199 -0.742757708980904 -0.71292775252974 0.439630244636068 0.790767527829167 -0.214682110423151 0.206345834524993 -0.663366374273422 0.453006064823349 -0.84955237852162 -0.0191601095240095 -1.34117605756808 0.494391381592517 -0.247391907682925 0.287253411991924 0.434633217803747 -0.514587732261567 -0.314396147532299 0.597468144800184 0.541998897923241 0.270568708011962 -0.305574056642535 -0.209642937804006 -0.698283241433883 0.194131780113747 -0.747315623101221 -1.12073803178657 -0.852382505322852 -0.961834557201767 0.495857374664867 -0.882508228554527 -0.701921522800479 -0.269185065537033 -1.50106548246614 -1.21238006688344 -0.456256330980864 -0.790872487791028 0.500157976010434 -0.00594558994116133 0.679370347911587 0.294474335555629 -0.848147905364326 0.318154816071553 0.504781964019365 -0.568099541916131 -0.385397233443966 -0.00644416500989765 0.227094674797287 0.445450088682328 -0.591835638599007 -0.605082485273127 0.00924813542068961 -0.0242225190131887 -0.997973699643872 -0.268644724363213 -0.671078679450041 -0.37251475067543 0.578240093528516 0.465602274735273 -0.0508415268524888 -0.119709927115189 -0.154104074801837 -0.801202421346771 0.311343213279455 0.304005782266414 -0.263419192411929 0.161020731468108 0.940435566911905 -0.720806334969032 0.117476603536623 0.277823659061662 0.506959455203073 0.617044649713479 0.489903843561838 -0.901612972212333 0.144310934169441 0.581739364548004 1.12199582412834 0.711421931724613
-0.03659283325028 0.773230758943598 0.0595345370720567 0.413510410471869 0.438054045513032 0.148702309288961 -0.247490594751827 -0.312922627288813 0.714063013506676 0.722540840924567 0.809161391242461 -0.662836289426918 0.14691839139635 0.947972002401328 0.585165275014208 -0.250268983400468 0.458868395375857 0.913204148268075 -0.219360657701157 -0.0487042302026923 0.968635574650912 -0.297254271478045 0.23753667902495 -1.2501825841054 -0.637604695183256 0.348228063669507 0.299061697593188 -0.0607985002420771 0.855965904116659 -0.648997095816887 0.174940156336415 -1.01441236561973 0.0541748146182651 -1.71016613214104 0.208530359201646 -0.294503548094761 0.158932299671462 0.516376752743473 0.862583451895301 -0.977259153328514 0.423723237642756 0.58665252675925 0.292801974753571 0.278078334172924 0.976703041651254 -0.229111133911777 0.352035387444008 0.102127461935849 -1.08126403335001 -0.775217692909009 -1.00079484933022 0.167437109232281 -0.920035284134251 -0.433576767451786 -0.123769965970713 -1.199869514596 -1.25241930901293 -0.322334211758577 -0.22984060241458 0.523190787092245 0.0273139740777019 0.700936829912696 0.629494073106649 -0.540525976763196 0.144252786750366 -0.31075242582179 -1.78000885097044 -0.456269872507536 0.204272849239686 0.156191880043134 0.445450088682328 -0.570269156597897 -0.548555953108793 0.4593824723841 0.49672605272018 -0.974002813869878 -0.922981994214388 -1.54147506286236 0.0217293081628535 0.542475799482598 0.465602274735273 -0.0563529163458961 -0.570116418783016 0.841146130943264 -0.449907611128702 0.570648448365004 0.52373005353924 -0.0826527081356318 -0.540791841126817 1.06316330518659 -0.720806334969032 0.117476603536623 0.0185727673976258 -0.6288865646975 -0.0466960625143115 0.467936822965278 -0.388231131720385 0.11923262400503 -0.233850085408855 0.964508343910496 0.705910542231196
-0.182551205513032 0.803952453561419 -0.152884892290087 -0.107788745029976 -0.232434301685911 0.0615457697781899 -0.768102420683761 -0.503515831041609 0.481598899822156 0.844611140950917 0.863235469339615 -0.688091880504859 -0.30016656813349 0.0546443976071608 1.62575436105928 -0.135130222015079 0.623221763969314 0.266892710544701 -0.862995558129389 -0.194189114318009 1.21696572003009 -0.297254271478045 0.327979176070365 -0.636878380475581 -0.43141407372404 0.767680370082835 0.739817071714728 -0.149501618075197 0.39658325710276 -0.559645089083996 0.471878276272797 -0.962347410981377 -0.091307782388761 -1.27149180261958 0.704342367353965 -0.515552441511381 0.314348407625383 0.446743305345463 -0.608599456010844 -0.411752136730503 0.518575065875176 0.533097968549343 0.220017233884635 -0.216924436988845 0.273195899605863 -0.438127407654874 0.854325101031595 -0.79098458776636 -1.18654362647493 -0.777317506450751 -0.986779001023345 0.521150822503282 -1.01800376001277 -0.678904065304156 -0.147797689703907 -0.961994049472159 -1.25085243167841 -0.969062541934381 -0.744615851942538 0.681636375201988 0.0165191608955046 0.675681238834755 0.436121363717028 -0.63467800267387 0.516319495044661 0.893558246086068 -0.548549410303315 -0.564059486255109 -0.00536000789246339 0.290104204940787 0.445450088682328 -0.595524747675837 -0.640816311856642 0.310467845773572 0.0436779360259159 -0.795520121039694 -0.103395830235923 -0.999942367041505 -0.314824466245721 0.785977585311556 0.465602274735273 -0.0758509735407301 -0.392678877451983 -0.170035166333082 -0.521206793971654 0.0332970989461799 0.985875790553899 -0.213307637501415 -0.297851114726609 0.937048694594938 -0.720806334969032 0.117476603536623 0.28714474329526 -0.300065512935709 -0.233097931323413 0.359701455158022 -0.52510663461722 0.0499016251637416 -0.135082174134793 0.843629509112562 0.686412485036368
0.224822821726779 0.696392969498748 -0.431823295008472 -0.0654185199734359 0.102584735079774 0.0646848421395946 -0.90954029369054 -0.371979516376544 0.619667440316521 0.402243468863482 0.813137635423876 -0.68556396448917 -0.298360081761526 0.172019054425117 0.777378006905816 -0.0694445631310662 0.117987484130157 0.628814782986257 -1.05168347732155 0.0378200689774504 1.00649605331019 -0.297254271478045 0.0834636807359682 -1.44405561538341 -0.934571941222962 -0.0500769194489535 0.149751962609899 0.0144384190071256 0.760377901626762 -0.693093116108232 0.316342343684074 -0.858378039298707 0.279906384701421 -1.79063998196975 0.540357734110286 -0.693716597485918 -0.00105305090485424 0.811083096073873 1.24022156153533 -0.554988627092657 0.548775062939222 0.592907952143339 0.700280318052585 0.285412487951322 0.718274091810079 0.140524609555621 0.461941634155466 0.126184568427622 -0.887018040939396 -0.82336739093683 -1.02814517317145 0.252987054582586 -0.822454792973995 -1.15073597940294 0.278766743462368 -1.64977333030137 -1.48686596704556 -0.0363371444007313 -0.316449929294791 0.415204275553985 0.00506748130564875 0.678209154850444 0.561828133874275 -1.03586972777414 0.211490616713603 -0.576797447732828 -1.60813110285164 -0.567074627846205 0.595837058317395 0.114744479378955 0.445450088682328 -0.592996831660148 -0.75414766596657 0.324980170224811 0.510174640227132 -1.41650897987983 -0.557721222992547 -1.11425754114203 -0.235144246889581 0.401283685451571 0.465602274735273 -0.0599010581162029 -0.469876400552814 0.749261537650552 -0.336355646330781 -0.098376175144435 0.41275896888799 -0.134046243038916 0.0714169191171285 1.07509706050198 -0.720806334969032 0.117476603536623 0.0834730143856856 0.20470256649323 0.817012728708949 0.032553310013424 -0.0149648881686643 0.295660448243628 0.570984194748145 1.19854414826844 0.702362400460893
0.22361680018261 0.669319788464799 -0.588833601172777 -0.536114210154092 -0.337696217799789 -0.329582510580183 -1.02438143915369 -0.725750540039913 0.0419793589535728 0.239295463529376 0.823526544440162 -0.692124397504169 -0.451103955721005 -0.556957098688734 1.16167623306994 -0.181361727723151 0.586420906857485 0.0784179899637838 -1.08800304403041 -0.573828309843592 0.872479084508059 -0.297254271478045 0.107297695335186 -0.978487358670436 -0.80888336901524 0.355412794555033 0.427120691173591 -0.0466252903072771 0.274038630048819 -0.651386275628131 0.226347897947268 -0.859990959132732 -0.0136999038536345 -1.43499713690839 0.502401642083731 -0.240584140641551 -0.0810426366715906 0.474038221808915 -0.583387327690519 -0.523496374176217 0.600098928979358 0.514512366598966 0.233645741544652 -0.721655189849711 -0.106865596009322 -0.877503251236791 -0.0840158991455673 -0.680466681597627 -1.42222082796864 -0.948331973133291 -0.959026557844818 0.28517835434126 -0.840612031684427 -0.722866455408591 -0.453395748917662 -1.50290848144684 -1.11752645268665 -0.708564816311113 -0.787473315416791 0.300290023755107 -0.0202609740699185 0.671648721835444 0.141641500406202 -0.678154763686134 0.340581212798609 0.466694224990101 -0.217700170964247 -0.526890209894541 0.00814949838962923 0.133157939319754 0.445450088682328 -0.599557264675148 -0.814296319341509 0.20160171601356 -0.105024305473613 -1.23314309394666 -0.37047170680154 -0.648295493445533 -0.391292693786331 0.42145298590249 0.465602274735273 -0.0123515478077815 -0.171468352660202 -0.0480421629855886 -0.497037026478171 0.404166893307746 0.221971570664515 -0.0744565330543631 -0.014251248655462 0.936023142370559 -0.720806334969032 0.117476603536623 0.306943734176542 0.551181029240838 0.66551159482787 0.751452617726069 -0.935781934027219 0.126853046846132 0.288986315120708 0.904483373048746 0.749911910769313
-0.788433367962632 0.564582243580557 -0.789742053831898 -0.359443368399203 0.610916424895532 0.685152133807838 0.573931303804067 0.156942595549769 -0.207095384485358 0.182211775816266 0.852677026407458 -0.700277338685441 -0.342609601359004 0.125450119983886 0.187911455467728 -0.430372831315696 0.723167584339867 0.716216652568459 -0.549369928283235 -0.995737499336387 0.652879761193583 -0.297254271478045 0.241327487020849 -1.16111190111546 -1.08710873884583 1.13109576591409 0.419361227473846 0.603602732963637 0.1527391496667 -0.46360751786757 0.148789542665622 -0.860947529988921 -0.0843612805567702 -0.243780010195095 0.912006977271011 0.441962956778572 0.448459243603603 0.567065348902785 -0.231867855025815 -0.534499588690398 0.633305159688129 0.660173328903705 0.29935034876044 -0.526241110451657 1.32817620292289 0.0807725713004077 1.78810520345568 -0.634962355159046 -0.25629981180849 -0.541828651428515 -0.865640909859675 0.319507532996675 -0.139149118171794 0.05274901188428 0.802876821223815 0.320474225069011 0.561270275038543 -1.17138688661802 -0.846305321924015 0.448995258426421 0.143901874186749 0.663495780654173 0.267966915392668 0.0614885105852319 1.13100358574704 0.778386095323587 0.633674920016092 -0.408246098546583 -0.57485321494017 0.253715656080227 0.445450088682328 -0.60771020585642 -1.38676973163234 1.14349459413347 -0.15771738181074 -0.62222735662945 0.285847271553465 -0.835763600035127 -0.572692579610422 0.481842879674342 0.465602274735273 -0.0929757717797908 -0.522945824219885 0.238785917028748 0.135122200215035 0.35007574283505 1.90568169693935 0.220729076769582 -0.765468692047811 0.596904990343649 -0.720806334969032 0.117476603536623 0.330050800264913 -0.142767119497911 0.55418837513463 1.50607445304503 -0.465580809187918 0.55133998336585 -0.625684561234044 0.320774058449555 0.669287686797324
-0.00209397181522295 0.331278065389511 -0.796097149641298 -0.87778678404335 -0.290752587042392 -0.0428279986472092 -0.346641109058828 -0.136695665186074 0.118565464659094 0.0469540525545543 0.854930739094044 -0.714127343269182 -0.449075139015285 0.055156674146324 0.630652237546506 -0.677100781380843 0.203145625443683 0.463783346322139 -0.404755584215367 -0.513592954716724 0.510589240625139 -0.297254271478045 0.293337512294557 -0.572777006542888 -0.999213332241653 0.95272574284406 0.134037423156825 0.276257162604889 0.671653748977187 -0.134055349493858 0.255906917558524 -0.792012458655165 0.369908117787092 -0.326268594050877 1.40960931300306 -0.215874936226926 0.110399325164283 0.476816645158098 -0.201816724791752 0.106127317175788 0.644029590295939 0.692697149405489 0.767221841946415 0.696752098625618 0.930270209540456 0.144939310230151 2.15834722408242 -0.645721910097807 0.0465847348996017 -0.354577172574326 -0.840757478477809 0.402916194771231 -0.376021381059239 0.230147426421525 0.6460281638269 -0.26189853827335 0.554229078241995 -1.51621928676607 -1.0929395609714 0.96861915799348 0.12783355018836 0.649645776070432 0.357057122060586 0.660274141176622 1.58891753178722 1.18782641078276 0.184788792036983 -0.313516104012876 -0.859649608324454 0.235348164270844 0.445450088682328 -0.621560210440161 -1.08387916114549 0.283954879647905 0.367129138493772 -0.294152412810213 -0.264372883561946 -1.04899294597357 -1.00141500231616 0.754882499577526 0.465602274735273 -0.164687614715853 -0.369999003086576 -0.591237649695723 -0.105415842673526 0.49900342119165 0.839622966630736 -0.671930425204243 -1.26351649568089 0.439898779594473 -0.720806334969032 0.117476603536623 0.497006622824895 -0.283011456203588 0.173556025895723 0.336048204010665 -0.361921842928616 0.0272055165888696 -0.835965912394659 -0.0121107411461791 0.597575843861261
-0.105230620095102 0.361189459797177 -0.727696013829786 -1.25078758592061 -0.232134887316064 -0.112178546639207 -0.357355849607867 0.107835720209099 -0.132339925529408 0.0694535631851858 0.85788214417174 -0.709491989125031 -0.496774709527777 -0.122609024087217 1.06787213543327 -0.583201497615214 0.234954786046195 0.329244036277444 -0.565943610049376 -0.534703054570344 0.563791243593983 -0.297254271478045 0.265646086419701 0.212917305815208 -0.96797767549657 1.14499506893078 0.333113146926067 0.16866307275198 0.939492885501341 -0.319092520089808 0.277513577053196 -0.778060725520534 0.417929197511033 0.385705283640975 1.60343982661586 -0.124771176349055 0.203345464661105 0.441688253806708 -0.570079952365181 0.0257789044522705 0.68508652462159 0.671023572022055 0.889679421295149 0.980215294870094 0.540829978318257 -0.0278595369547817 1.63156569410252 -0.645811423325105 0.200239208063962 -0.380587231344148 -0.835564261635894 0.462365215719652 -0.440558728048656 0.217077897760562 0.729647484907686 -0.461005438875394 -0.178689733057507 -1.34957650329076 -1.09396634137954 0.991722261769911 0.138809117416766 0.654281130214583 0.405902835668587 1.31302011468724 1.98911565843237 1.42827746705246 0.333048359455304 -0.487190648217602 -0.767077277273655 0.229108786892837 0.445450088682328 -0.61692485629601 -0.681805963282043 0.00492688898194498 0.413963373338497 -0.0699885774644676 0.116716695122718 -0.949336004028243 -0.973418496137261 0.722722554849153 0.465602274735273 -0.201308162796149 -0.339327558483894 -0.20732883458959 -0.0764347613065811 0.697127994000334 0.496265018698599 -1.34255089728238 -0.603334903458929 0.71966460538683 -0.720806334969032 0.117476603536623 0.51905050245584 0.485700319599779 0.495847402349485 0.161696145215653 -0.314869272941602 0.342800197677188 -0.269826959084922 -0.0665906531015899 0.560955295780969
0.348609630090171 0.616782216051961 -0.714134230287225 -0.421325917484284 -0.310854004027452 -0.426920989070177 -0.878943107361957 -0.0711154587974725 0.15723403886649 -0.0322816259165404 0.783035009318958 -0.692727558559661 -0.468078340379818 -0.0455287237504583 0.441212101732474 -0.419706970795616 0.356798664106904 0.372678119857559 -0.698937975479221 -0.192650478009492 0.989982189925944 -0.297254271478045 0.0894733481053634 -0.744510757008948 -1.05830484370627 0.027281007160673 0.487983887259395 -0.155277416256903 0.478233939504284 -0.382477428255882 0.356500201712199 -0.721937597803565 0.486556570812869 -0.660890245458264 1.4516475901964 -0.616235679032333 0.253698639290773 0.523895114850836 0.32397833576 0.116678066192539 0.66255099926311 0.697445900794464 0.904741163296286 0.810858157931693 0.210324173802898 -0.0351911091451205 0.330433461871391 0.401855102590587 -0.26639580758045 -0.685371003263011 -0.907466129978156 0.401204900867717 -0.217002364839296 -0.586955837886048 0.679742590359244 -1.02707920649628 -0.710816063904415 -0.606512649948975 -0.633094698079054 0.451230237777393 0.0969863750205074 0.671045560779953 0.626207937442243 0.280184455286279 1.07537038583283 0.164622297986427 -0.382306313943882 -0.372495150494083 -0.130717750236637 0.0632457907980481 0.445450088682328 -0.600160425730639 -0.251542586168434 -0.196881020329008 0.177314307032076 -0.562237740445046 -0.128628933613138 -1.48467941544233 -0.246588635232352 0.216142834046848 0.465602274735273 -0.0639000169202827 0.148014410254403 0.422506239605214 -0.597377121192806 0.679706776527083 0.722665080578249 -0.96054468850156 0.00545036454043257 1.08881178880455 -0.720806334969032 0.117476603536623 0.440869523526602 0.921170042246953 1.16533593317388 0.0329647741527814 -0.977693640159698 -0.298472005961626 0.524949130926858 1.21362420882057 0.698363441656831
-0.831511147622989 0.58241055736492 -0.338659363925522 -0.633675648131482 0.0941336913176887 -0.237739676217073 -0.151539161289243 0.169761474849904 0.298605737564458 0.497703936156782 0.800631669845885 -0.676088417030839 -0.532004170989198 -0.00278696778413049 1.496989465422 0.255767145096866 0.933904804387162 0.233681962927423 -0.621151459652984 -0.0169291911271893 0.831675094664535 -0.297254271478045 0.29127629439082 0.0240116168354442 -0.613252044548973 1.2237491627406 1.02820809554213 0.370448178061071 0.130861574790648 -0.398218311819034 0.233522284136012 -0.765582611325569 0.469321083644854 0.292907561059165 1.33239001453703 -0.115775848233894 0.779023338451758 0.623736172118699 -1.16756267667274 -0.132167557685101 0.636977539860343 0.7139395566085 1.04793117744575 0.64753613451742 0.258308427917493 -0.482784938484371 0.653947775638993 0.146171655098721 -0.558272272761851 -0.505074493920244 -0.805302229085701 0.387086876650457 -0.273388897805367 0.124126001394695 0.212725830067607 -1.05139558723885 -0.81600080138217 -0.943832279576356 -1.00899810064181 0.839554002628733 0.120176023301025 0.687684702308775 0.858316247342003 0.867806320461568 1.51776348500962 1.12937518230666 0.263855001049211 -0.286904960859473 -0.47099307125073 0.0698031763069586 0.445450088682328 -0.583521284201818 -0.0289355839468612 0.548497590713004 0.173612788622308 0.0210970356060575 -0.234422450014771 -0.818771839249776 -0.422413334090728 0.509692601278592 0.465602274735273 -0.0671725380671156 -0.245831455906493 0.137538109281944 -0.182733179777186 1.39000862518575 0.612080238153851 -0.381115420845114 0.0303986431661189 1.02209448046275 -0.720806334969032 0.117476603536623 0.416521377837784 0.969834936823776 0.723642618035118 0.986570318240019 -0.789193602506802 0.527064273003386 0.148619282700135 0.517019830983965 0.69509092051001
